svm_type c_svc
kernel_type rbf
gamma 32
nr_class 2
total_sv 584
rho 3.69334
label 1 -1
probA -2.46432
probB 0.0507918
nr_sv 278 306
SV
5.291838415844756 0:0.04310345 1:0.00862069 2:0.05172414 3:0 4:0.02586207 5:0 6:0 7:0.01724138 8:0.03448276 9:0.00862069 10:0.00862069 11:0.03448276 12:0.02586207 13:0 14:0.01724138 15:0 16:0.00862069 17:0.02586207 18:0.00862069 19:0.01724138 20:0 21:0 22:0 23:0.00862069 24:0 25:0 26:0 27:0.00862069 28:0 29:0.03448276 30:0 31:0.03448276 32:0.03448276 33:0.00862069 34:0.02586207 35:0.00862069 36:0.00862069 37:0 38:0.00862069 39:0.01724138 40:0.01724138 41:0 42:0.04310345 43:0.00862069 44:0.01724138 45:0.00862069 46:0.01724138 47:0.03448276 48:0.01724138 49:0 50:0 51:0.02586207 52:0.02586207 53:0.00862069 54:0 55:0.02586207 56:0.01724138 57:0.02586207 58:0.01724138 59:0.02586207 60:0 61:0.01724138 62:0.05172414 63:0.060344826 
1.401483691364788 0:0 1:0 2:0.023076924 3:0.0076923077 4:0.023076924 5:0.0076923077 6:0 7:0.0076923077 8:0.023076924 9:0.015384615 10:0.015384615 11:0.015384615 12:0.0076923077 13:0.0076923077 14:0.03076923 15:0.015384615 16:0 17:0.03076923 18:0.0076923077 19:0.023076924 20:0.0076923077 21:0.03846154 22:0.0076923077 23:0.023076924 24:0 25:0 26:0 27:0.0076923077 28:0.015384615 29:0.06153846 30:0 31:0.03076923 32:0.03076923 33:0.0076923077 34:0.03846154 35:0.0076923077 36:0.015384615 37:0 38:0 39:0.03076923 40:0.0076923077 41:0.0076923077 42:0 43:0.03076923 44:0 45:0.0076923077 46:0.053846154 47:0.0076923077 48:0 49:0 50:0 51:0.023076924 52:0.015384615 53:0.03076923 54:0 55:0.046153847 56:0.046153847 57:0.023076924 58:0.03076923 59:0.015384615 60:0 61:0.023076924 62:0.03076923 63:0.015384615 
8 0:0.05102041 1:0 2:0.020408163 3:0.030612245 4:0.030612245 5:0.010204081 6:0.020408163 7:0 8:0.010204081 9:0.010204081 10:0 11:0.010204081 12:0.010204081 13:0.010204081 14:0.040816326 15:0.020408163 16:0.040816326 17:0.010204081 18:0 19:0.020408163 20:0.020408163 21:0.010204081 22:0.010204081 23:0 24:0 25:0.010204081 26:0 27:0.030612245 28:0.010204081 29:0.020408163 30:0.010204081 31:0.030612245 32:0.010204081 33:0.020408163 34:0 35:0.030612245 36:0.010204081 37:0.010204081 38:0 39:0.020408163 40:0.010204081 41:0 42:0 43:0 44:0.010204081 45:0.030612245 46:0.030612245 47:0 48:0 49:0.020408163 50:0.010204081 51:0 52:0.010204081 53:0.010204081 54:0.010204081 55:0.05102041 56:0.040816326 57:0.020408163 58:0.010204081 59:0.040816326 60:0 61:0.020408163 62:0.030612245 63:0.040816326 
5.967823212369621 0:0 1:0 2:0 3:0 4:0 5:0.012048192 6:0 7:0 8:0 9:0.024096385 10:0.012048192 11:0.012048192 12:0.024096385 13:0.024096385 14:0.084337346 15:0 16:0 17:0 18:0 19:0.04819277 20:0.036144577 21:0.024096385 22:0.012048192 23:0.036144577 24:0.024096385 25:0 26:0 27:0.024096385 28:0 29:0.024096385 30:0.036144577 31:0 32:0 33:0.012048192 34:0.04819277 35:0.024096385 36:0.012048192 37:0.04819277 38:0.012048192 39:0.024096385 40:0.024096385 41:0.024096385 42:0 43:0 44:0.04819277 45:0 46:0.012048192 47:0 48:0 49:0 50:0 51:0.072289154 52:0 53:0.024096385 54:0.024096385 55:0 56:0.036144577 57:0.04819277 58:0.036144577 59:0.012048192 60:0 61:0 62:0 63:0 
3.572589485637818 0:0.04597701 1:0.011494253 2:0.022988506 3:0.011494253 4:0.03448276 5:0 6:0 7:0.011494253 8:0.022988506 9:0.011494253 10:0 11:0.04597701 12:0 13:0.03448276 14:0.022988506 15:0.011494253 16:0.03448276 17:0.022988506 18:0.011494253 19:0.022988506 20:0.011494253 21:0.011494253 22:0 23:0.022988506 24:0.022988506 25:0 26:0 27:0.022988506 28:0.011494253 29:0.011494253 30:0.022988506 31:0 32:0.011494253 33:0.011494253 34:0.011494253 35:0.022988506 36:0.011494253 37:0.022988506 38:0.011494253 39:0.011494253 40:0 41:0.022988506 42:0 43:0 44:0.03448276 45:0.022988506 46:0.022988506 47:0.011494253 48:0 49:0.011494253 50:0.03448276 51:0.011494253 52:0.03448276 53:0.011494253 54:0.03448276 55:0 56:0.011494253 57:0.022988506 58:0.022988506 59:0.011494253 60:0.011494253 61:0.011494253 62:0 63:0.022988506 
8 0:0.022988506 1:0 2:0.022988506 3:0.011494253 4:0.011494253 5:0.011494253 6:0.011494253 7:0 8:0 9:0.011494253 10:0.011494253 11:0.022988506 12:0.011494253 13:0.011494253 14:0.03448276 15:0.011494253 16:0.022988506 17:0.011494253 18:0 19:0.011494253 20:0.011494253 21:0.011494253 22:0.022988506 23:0.022988506 24:0.022988506 25:0 26:0.022988506 27:0.011494253 28:0 29:0.011494253 30:0.03448276 31:0 32:0 33:0.011494253 34:0.022988506 35:0.022988506 36:0.011494253 37:0.03448276 38:0.011494253 39:0.022988506 40:0.022988506 41:0.03448276 42:0 43:0.022988506 44:0.022988506 45:0.011494253 46:0.022988506 47:0.022988506 48:0.011494253 49:0.022988506 50:0 51:0.022988506 52:0.011494253 53:0.011494253 54:0.011494253 55:0 56:0.011494253 57:0.03448276 58:0.04597701 59:0.011494253 60:0.022988506 61:0 62:0.011494253 63:0.04597701 
2.978032487029535 0:0.027027028 1:0.045045044 2:0.009009009 3:0.018018018 4:0.027027028 5:0.018018018 6:0.027027028 7:0.018018018 8:0.018018018 9:0.018018018 10:0.009009009 11:0 12:0 13:0.018018018 14:0.018018018 15:0.018018018 16:0.036036037 17:0.036036037 18:0.009009009 19:0.027027028 20:0.027027028 21:0.009009009 22:0.009009009 23:0 24:0.009009009 25:0 26:0 27:0.027027028 28:0 29:0.036036037 30:0 31:0.036036037 32:0.027027028 33:0 34:0.027027028 35:0 36:0.036036037 37:0 38:0 39:0.018018018 40:0.009009009 41:0.009009009 42:0.018018018 43:0.009009009 44:0.009009009 45:0.009009009 46:0.018018018 47:0.009009009 48:0.009009009 49:0.009009009 50:0 51:0.009009009 52:0.018018018 53:0.027027028 54:0 55:0.036036037 56:0.018018018 57:0.027027028 58:0.009009009 59:0.009009009 60:0.018018018 61:0.018018018 62:0.027027028 63:0.018018018 
5.440707949341058 0:0.027027028 1:0.009009009 2:0.027027028 3:0.027027028 4:0 5:0.018018018 6:0 7:0 8:0.045045044 9:0 10:0.027027028 11:0.009009009 12:0.009009009 13:0.018018018 14:0.018018018 15:0.054054055 16:0.009009009 17:0 18:0.009009009 19:0.027027028 20:0.018018018 21:0.045045044 22:0 23:0.009009009 24:0.009009009 25:0 26:0.018018018 27:0 28:0.009009009 29:0.018018018 30:0.009009009 31:0.009009009 32:0.036036037 33:0.009009009 34:0.036036037 35:0.036036037 36:0 37:0 38:0 39:0.018018018 40:0.018018018 41:0.018018018 42:0 43:0.027027028 44:0.009009009 45:0.018018018 46:0.009009009 47:0.009009009 48:0.018018018 49:0 50:0.009009009 51:0.009009009 52:0.027027028 53:0.018018018 54:0.027027028 55:0.018018018 56:0.045045044 57:0 58:0.009009009 59:0.009009009 60:0.009009009 61:0.036036037 62:0.027027028 63:0.018018018 
3.767178840052763 0:0 1:0.019417476 2:0.009708738 3:0.019417476 4:0 5:0.019417476 6:0.009708738 7:0.009708738 8:0.009708738 9:0 10:0.019417476 11:0.009708738 12:0.009708738 13:0.019417476 14:0.08737864 15:0.029126214 16:0.019417476 17:0 18:0.019417476 19:0.03883495 20:0.019417476 21:0.019417476 22:0 23:0.019417476 24:0.019417476 25:0 26:0.009708738 27:0 28:0 29:0.03883495 30:0.009708738 31:0.019417476 32:0.009708738 33:0.019417476 34:0.009708738 35:0.0776699 36:0 37:0.009708738 38:0 39:0.019417476 40:0.009708738 41:0.019417476 42:0 43:0.009708738 44:0 45:0.009708738 46:0.009708738 47:0.009708738 48:0.009708738 49:0 50:0 51:0.009708738 52:0.058252428 53:0.009708738 54:0.019417476 55:0.019417476 56:0.0776699 57:0.009708738 58:0.009708738 59:0.009708738 60:0.009708738 61:0.03883495 62:0 63:0 
4.511629802591388 0:0.018691588 1:0.028037382 2:0.037383176 3:0.009345794 4:0.028037382 5:0.009345794 6:0 7:0.009345794 8:0.018691588 9:0.037383176 10:0.009345794 11:0.009345794 12:0.009345794 13:0.018691588 14:0.037383176 15:0.009345794 16:0.018691588 17:0.009345794 18:0.018691588 19:0.028037382 20:0.018691588 21:0.009345794 22:0 23:0.028037382 24:0 25:0 26:0 27:0 28:0.018691588 29:0.028037382 30:0.018691588 31:0.028037382 32:0.037383176 33:0.009345794 34:0.009345794 35:0.018691588 36:0.009345794 37:0.018691588 38:0 39:0.037383176 40:0.018691588 41:0 42:0.009345794 43:0.018691588 44:0 45:0.009345794 46:0.018691588 47:0.009345794 48:0.018691588 49:0 50:0.009345794 51:0.018691588 52:0.018691588 53:0.018691588 54:0 55:0.028037382 56:0.037383176 57:0.028037382 58:0.018691588 59:0.009345794 60:0.018691588 61:0.009345794 62:0.018691588 63:0.009345794 
4.871938132951184 0:0.007352941 1:0.022058824 2:0 3:0.014705882 4:0.014705882 5:0.022058824 6:0 7:0.014705882 8:0 9:0.014705882 10:0.022058824 11:0 12:0 13:0.036764707 14:0 15:0.029411765 16:0.014705882 17:0.014705882 18:0.022058824 19:0.014705882 20:0.014705882 21:0.007352941 22:0.007352941 23:0.029411765 24:0.007352941 25:0.014705882 26:0.036764707 27:0.007352941 28:0 29:0.022058824 30:0.014705882 31:0.029411765 32:0.014705882 33:0.014705882 34:0.014705882 35:0.029411765 36:0.022058824 37:0.014705882 38:0 39:0.022058824 40:0.036764707 41:0.014705882 42:0.022058824 43:0.029411765 44:0 45:0.007352941 46:0.029411765 47:0.007352941 48:0.007352941 49:0 50:0 51:0.007352941 52:0.007352941 53:0.014705882 54:0.05882353 55:0 56:0.029411765 57:0.014705882 58:0.022058824 59:0.007352941 60:0.014705882 61:0.014705882 62:0.036764707 63:0.029411765 
3.038723119783027 0:0 1:0.016393442 2:0 3:0.008196721 4:0.016393442 5:0.016393442 6:0.008196721 7:0.016393442 8:0 9:0.008196721 10:0.016393442 11:0.008196721 12:0 13:0.016393442 14:0.008196721 15:0.016393442 16:0.008196721 17:0.016393442 18:0.008196721 19:0.008196721 20:0 21:0.008196721 22:0.032786883 23:0 24:0.016393442 25:0.008196721 26:0.040983606 27:0.016393442 28:0 29:0.016393442 30:0.024590164 31:0.024590164 32:0.016393442 33:0.016393442 34:0.024590164 35:0.016393442 36:0.008196721 37:0 38:0.008196721 39:0.024590164 40:0.024590164 41:0.016393442 42:0.008196721 43:0.04918033 44:0.008196721 45:0.04918033 46:0.032786883 47:0.016393442 48:0 49:0.008196721 50:0 51:0.008196721 52:0.016393442 53:0.016393442 54:0.032786883 55:0.024590164 56:0.040983606 57:0.008196721 58:0.032786883 59:0.032786883 60:0.008196721 61:0.008196721 62:0.04918033 63:0.008196721 
1.862335665941813 0:0.0625 1:0.013392857 2:0.04017857 3:0.017857144 4:0.017857144 5:0.004464286 6:0.008928572 7:0.017857144 8:0.017857144 9:0.004464286 10:0.017857144 11:0.02232143 12:0.035714287 13:0.008928572 14:0.013392857 15:0.03125 16:0.026785715 17:0.004464286 18:0.008928572 19:0.004464286 20:0.008928572 21:0 22:0.008928572 23:0.004464286 24:0.008928572 25:0.004464286 26:0.004464286 27:0.008928572 28:0.008928572 29:0.004464286 30:0 31:0.026785715 32:0.02232143 33:0.013392857 34:0 35:0.03125 36:0.008928572 37:0.008928572 38:0 39:0.004464286 40:0.017857144 41:0.008928572 42:0 43:0 44:0.013392857 45:0.008928572 46:0.017857144 47:0.013392857 48:0.02232143 49:0.017857144 50:0.013392857 51:0.035714287 52:0.008928572 53:0.008928572 54:0.008928572 55:0.013392857 56:0.02232143 57:0.008928572 58:0.004464286 59:0.017857144 60:0.03125 61:0.017857144 62:0.02232143 63:0.10714286 
0.430347454085375 0:0 1:0.010989011 2:0 3:0.010989011 4:0 5:0 6:0 7:0.032967035 8:0.032967035 9:0.010989011 10:0 11:0.021978023 12:0.021978023 13:0.021978023 14:0 15:0.032967035 16:0.010989011 17:0.010989011 18:0.021978023 19:0.010989011 20:0 21:0.010989011 22:0.010989011 23:0.032967035 24:0.010989011 25:0 26:0 27:0.010989011 28:0.010989011 29:0.08791209 30:0.032967035 31:0.010989011 32:0 33:0 34:0.043956045 35:0.032967035 36:0 37:0.021978023 38:0 39:0 40:0 41:0.010989011 42:0 43:0.010989011 44:0 45:0.032967035 46:0.010989011 47:0.010989011 48:0.010989011 49:0.010989011 50:0 51:0.021978023 52:0.054945055 53:0.021978023 54:0.010989011 55:0.07692308 56:0.032967035 57:0 58:0.021978023 59:0.010989011 60:0.010989011 61:0.021978023 62:0.021978023 63:0.021978023 
7.910116951075128 0:0 1:0 2:0 3:0.008264462 4:0.024793388 5:0.016528925 6:0.008264462 7:0.016528925 8:0.041322313 9:0.008264462 10:0 11:0.016528925 12:0.03305785 13:0.024793388 14:0.008264462 15:0.041322313 16:0.008264462 17:0.03305785 18:0.016528925 19:0.008264462 20:0.016528925 21:0.008264462 22:0.008264462 23:0.024793388 24:0 25:0.016528925 26:0 27:0.016528925 28:0.008264462 29:0.05785124 30:0.024793388 31:0.016528925 32:0 33:0.008264462 34:0.03305785 35:0.041322313 36:0 37:0.024793388 38:0.008264462 39:0 40:0 41:0.008264462 42:0 43:0.008264462 44:0.016528925 45:0.008264462 46:0 47:0.008264462 48:0 49:0.024793388 50:0.016528925 51:0.041322313 52:0.024793388 53:0.008264462 54:0.008264462 55:0.0661157 56:0.041322313 57:0 58:0.016528925 59:0 60:0.024793388 61:0.016528925 62:0.024793388 63:0.008264462 
5.452263538146684 0:0.032258064 1:0.010752688 2:0.010752688 3:0.043010753 4:0.010752688 5:0.021505376 6:0 7:0 8:0.021505376 9:0.010752688 10:0.021505376 11:0 12:0.043010753 13:0.021505376 14:0.05376344 15:0.043010753 16:0.010752688 17:0.021505376 18:0.010752688 19:0.032258064 20:0.010752688 21:0.010752688 22:0 23:0.010752688 24:0 25:0.010752688 26:0 27:0 28:0.010752688 29:0 30:0.010752688 31:0.010752688 32:0.021505376 33:0 34:0.010752688 35:0.05376344 36:0.032258064 37:0 38:0.010752688 39:0.010752688 40:0.010752688 41:0.010752688 42:0.010752688 43:0.010752688 44:0.010752688 45:0 46:0 47:0.010752688 48:0.032258064 49:0.010752688 50:0.010752688 51:0.032258064 52:0.021505376 53:0 54:0 55:0.010752688 56:0.05376344 57:0.021505376 58:0.010752688 59:0.010752688 60:0.021505376 61:0.010752688 62:0.032258064 63:0.021505376 
8 0:0.005586592 1:0.02793296 2:0.016759777 3:0.02793296 4:0.011173184 5:0.005586592 6:0.011173184 7:0.011173184 8:0.011173184 9:0.005586592 10:0.005586592 11:0.02793296 12:0.022346368 13:0 14:0.05586592 15:0.02793296 16:0.022346368 17:0 18:0.005586592 19:0.033519555 20:0.016759777 21:0.005586592 22:0.005586592 23:0.011173184 24:0 25:0 26:0.016759777 27:0.005586592 28:0.005586592 29:0.016759777 30:0.005586592 31:0.033519555 32:0.02793296 33:0.005586592 34:0.016759777 35:0.022346368 36:0.02793296 37:0.011173184 38:0 39:0.011173184 40:0.022346368 41:0.011173184 42:0.005586592 43:0 44:0.016759777 45:0.005586592 46:0.016759777 47:0.016759777 48:0.022346368 49:0.005586592 50:0.011173184 51:0.022346368 52:0.005586592 53:0.011173184 54:0.005586592 55:0.02793296 56:0.039106146 57:0.033519555 58:0.016759777 59:0.022346368 60:0.016759777 61:0.02793296 62:0.033519555 63:0.022346368 
0.1182343427395402 0:0.006060606 1:0.018181818 2:0.018181818 3:0.024242423 4:0.006060606 5:0.024242423 6:0.006060606 7:0.006060606 8:0.006060606 9:0.006060606 10:0.012121212 11:0.006060606 12:0.006060606 13:0.006060606 14:0.030303031 15:0.042424243 16:0.024242423 17:0.006060606 18:0 19:0.024242423 20:0.024242423 21:0.006060606 22:0.012121212 23:0.006060606 24:0.006060606 25:0 26:0.012121212 27:0.012121212 28:0.006060606 29:0.018181818 30:0.018181818 31:0.030303031 32:0.024242423 33:0.018181818 34:0.006060606 35:0.024242423 36:0.012121212 37:0.012121212 38:0 39:0.012121212 40:0.018181818 41:0.012121212 42:0.006060606 43:0.024242423 44:0 45:0.018181818 46:0.006060606 47:0.036363635 48:0.012121212 49:0 50:0.006060606 51:0.012121212 52:0.012121212 53:0.006060606 54:0.012121212 55:0.048484847 56:0.042424243 57:0.018181818 58:0.024242423 59:0.018181818 60:0.018181818 61:0.042424243 62:0.048484847 63:0.018181818 
3.973972264674737 0:0.023696683 1:0.014218009 2:0.028436018 3:0.023696683 4:0.014218009 5:0.014218009 6:0 7:0.014218009 8:0.033175357 9:0.0047393367 10:0.018957347 11:0.014218009 12:0.037914693 13:0.014218009 14:0.037914693 15:0.014218009 16:0.028436018 17:0 18:0.014218009 19:0.018957347 20:0.014218009 21:0 22:0 23:0.018957347 24:0.0047393367 25:0 26:0 27:0 28:0.009478673 29:0.018957347 30:0.009478673 31:0.033175357 32:0.028436018 33:0.018957347 34:0.009478673 35:0.023696683 36:0.0047393367 37:0.009478673 38:0 39:0.009478673 40:0.014218009 41:0.009478673 42:0 43:0.009478673 44:0.0047393367 45:0.018957347 46:0.0047393367 47:0.018957347 48:0.009478673 49:0.009478673 50:0.018957347 51:0.037914693 52:0.028436018 53:0.014218009 54:0.0047393367 55:0.028436018 56:0.028436018 57:0.009478673 58:0.014218009 59:0.023696683 60:0.023696683 61:0.023696683 62:0.023696683 63:0.037914693 
0.4544545735227668 0:0.016393442 1:0.008196721 2:0.008196721 3:0.032786883 4:0.008196721 5:0 6:0 7:0 8:0.032786883 9:0.016393442 10:0 11:0.008196721 12:0 13:0.024590164 14:0.032786883 15:0.04918033 16:0.024590164 17:0 18:0.024590164 19:0.016393442 20:0 21:0 22:0 23:0.008196721 24:0 25:0 26:0.008196721 27:0 28:0.008196721 29:0.008196721 30:0.008196721 31:0.040983606 32:0.016393442 33:0 34:0.016393442 35:0.032786883 36:0.024590164 37:0.008196721 38:0.008196721 39:0.024590164 40:0 41:0.016393442 42:0.008196721 43:0.016393442 44:0 45:0.008196721 46:0 47:0.024590164 48:0.008196721 49:0 50:0 51:0.024590164 52:0.032786883 53:0 54:0 55:0.040983606 56:0.032786883 57:0.032786883 58:0.024590164 59:0.008196721 60:0.024590164 61:0.032786883 62:0.057377048 63:0.09016393 
5.168701009607091 0:0.016949153 1:0 2:0.008474576 3:0.008474576 4:0.008474576 5:0.008474576 6:0 7:0 8:0.008474576 9:0.033898305 10:0.016949153 11:0.016949153 12:0.050847456 13:0.025423728 14:0.033898305 15:0 16:0 17:0.008474576 18:0.016949153 19:0.033898305 20:0.033898305 21:0 22:0 23:0.008474576 24:0 25:0.016949153 26:0 27:0.008474576 28:0.016949153 29:0.016949153 30:0.025423728 31:0.025423728 32:0.008474576 33:0 34:0.025423728 35:0.008474576 36:0 37:0.008474576 38:0.025423728 39:0.050847456 40:0.016949153 41:0.016949153 42:0.008474576 43:0 44:0.033898305 45:0 46:0.008474576 47:0.025423728 48:0.008474576 49:0.008474576 50:0.025423728 51:0.059322033 52:0.016949153 53:0.025423728 54:0 55:0.025423728 56:0.008474576 57:0.016949153 58:0.016949153 59:0.042372882 60:0 61:0.025423728 62:0.016949153 63:0.016949153 
1.169386658172899 0:0.010989011 1:0.010989011 2:0.010989011 3:0.021978023 4:0.010989011 5:0.010989011 6:0 7:0.032967035 8:0.010989011 9:0.010989011 10:0 11:0.021978023 12:0.010989011 13:0.010989011 14:0.021978023 15:0.032967035 16:0.010989011 17:0.021978023 18:0 19:0.021978023 20:0.021978023 21:0.021978023 22:0.010989011 23:0.021978023 24:0 25:0 26:0.010989011 27:0 28:0.021978023 29:0.032967035 30:0.021978023 31:0.010989011 32:0.021978023 33:0.010989011 34:0.021978023 35:0.021978023 36:0.010989011 37:0 38:0 39:0 40:0.032967035 41:0 42:0.054945055 43:0 44:0 45:0.010989011 46:0.010989011 47:0.021978023 48:0.010989011 49:0.010989011 50:0.010989011 51:0.010989011 52:0.010989011 53:0.043956045 54:0 55:0.032967035 56:0.032967035 57:0 58:0.021978023 59:0.021978023 60:0.010989011 61:0.032967035 62:0.021978023 63:0.043956045 
7.697204293863205 0:0.020408163 1:0.020408163 2:0.020408163 3:0.010204081 4:0.030612245 5:0 6:0.010204081 7:0.030612245 8:0 9:0.010204081 10:0 11:0.020408163 12:0.020408163 13:0 14:0.020408163 15:0.020408163 16:0.020408163 17:0.020408163 18:0 19:0.040816326 20:0.020408163 21:0.030612245 22:0 23:0.010204081 24:0 25:0.010204081 26:0 27:0 28:0 29:0.020408163 30:0.010204081 31:0.030612245 32:0.010204081 33:0.010204081 34:0.010204081 35:0 36:0 37:0.010204081 38:0 39:0.010204081 40:0.010204081 41:0 42:0.040816326 43:0.020408163 44:0.010204081 45:0.020408163 46:0.020408163 47:0.040816326 48:0.020408163 49:0.020408163 50:0 51:0.010204081 52:0.030612245 53:0.020408163 54:0 55:0.010204081 56:0.020408163 57:0 58:0.030612245 59:0.05102041 60:0.020408163 61:0.020408163 62:0.05102041 63:0.030612245 
0.8226257110777492 0:0.010204081 1:0.020408163 2:0.020408163 3:0.010204081 4:0.030612245 5:0 6:0.010204081 7:0.030612245 8:0 9:0.010204081 10:0 11:0.020408163 12:0.030612245 13:0 14:0.020408163 15:0.020408163 16:0.010204081 17:0.030612245 18:0 19:0.040816326 20:0.020408163 21:0.010204081 22:0 23:0.010204081 24:0 25:0.010204081 26:0 27:0 28:0 29:0.020408163 30:0.010204081 31:0.030612245 32:0.020408163 33:0.010204081 34:0.010204081 35:0 36:0 37:0.010204081 38:0 39:0.010204081 40:0.010204081 41:0 42:0.040816326 43:0.020408163 44:0.010204081 45:0.020408163 46:0.020408163 47:0.040816326 48:0.020408163 49:0.010204081 50:0 51:0.020408163 52:0.030612245 53:0.020408163 54:0 55:0.010204081 56:0.030612245 57:0 58:0.030612245 59:0.05102041 60:0.010204081 61:0.020408163 62:0.06122449 63:0.030612245 
3.841037227434127 0:0.010204081 1:0.030612245 2:0.020408163 3:0.020408163 4:0.020408163 5:0 6:0 7:0.030612245 8:0.010204081 9:0.010204081 10:0 11:0.040816326 12:0 13:0 14:0.020408163 15:0.040816326 16:0 17:0.020408163 18:0.020408163 19:0.020408163 20:0.010204081 21:0.010204081 22:0.010204081 23:0.020408163 24:0.010204081 25:0 26:0 27:0 28:0.020408163 29:0.030612245 30:0.020408163 31:0.010204081 32:0.040816326 33:0 34:0.010204081 35:0.010204081 36:0 37:0 38:0 39:0.010204081 40:0.020408163 41:0 42:0.030612245 43:0 44:0.010204081 45:0.020408163 46:0.010204081 47:0.040816326 48:0.030612245 49:0 50:0.010204081 51:0.010204081 52:0.030612245 53:0.040816326 54:0 55:0.020408163 56:0.020408163 57:0 58:0.020408163 59:0.040816326 60:0.020408163 61:0.040816326 62:0.030612245 63:0.020408163 
5.540793458751294 0:0.033557046 1:0.013422819 2:0.013422819 3:0.013422819 4:0.013422819 5:0 6:0.0067114094 7:0.013422819 8:0.020134227 9:0.013422819 10:0 11:0.0067114094 12:0.040268455 13:0.013422819 14:0 15:0.033557046 16:0.013422819 17:0.0067114094 18:0.020134227 19:0.013422819 20:0.0067114094 21:0 22:0 23:0 24:0.0067114094 25:0.0067114094 26:0.0067114094 27:0 28:0 29:0.026845638 30:0.026845638 31:0.053691275 32:0.013422819 33:0.0067114094 34:0 35:0.040268455 36:0.013422819 37:0 38:0.0067114094 39:0.020134227 40:0.0067114094 41:0 42:0.0067114094 43:0.0067114094 44:0.0067114094 45:0 46:0.013422819 47:0.0067114094 48:0.013422819 49:0.013422819 50:0.0067114094 51:0.020134227 52:0.020134227 53:0.0067114094 54:0.0067114094 55:0.06711409 56:0.026845638 57:0.020134227 58:0.0067114094 59:0.013422819 60:0.0067114094 61:0.060402684 62:0.026845638 63:0.11409396 
2.433671097285215 0:0.01904762 1:0.00952381 2:0.00952381 3:0.04761905 4:0.00952381 5:0.00952381 6:0 7:0 8:0.00952381 9:0.01904762 10:0 11:0.00952381 12:0.00952381 13:0.00952381 14:0.03809524 15:0.057142857 16:0.00952381 17:0 18:0.01904762 19:0.028571429 20:0.00952381 21:0 22:0 23:0 24:0 25:0.00952381 26:0 27:0.028571429 28:0.00952381 29:0.00952381 30:0 31:0 32:0.03809524 33:0 34:0.00952381 35:0.01904762 36:0.00952381 37:0 38:0.028571429 39:0.00952381 40:0.00952381 41:0 42:0 43:0 44:0.00952381 45:0 46:0.00952381 47:0.057142857 48:0.01904762 49:0.00952381 50:0 51:0.01904762 52:0.028571429 53:0 54:0.00952381 55:0.00952381 56:0.04761905 57:0.01904762 58:0.00952381 59:0.03809524 60:0.028571429 61:0.028571429 62:0.057142857 63:0.0952381 
0.5278881080800468 0:0.009345794 1:0.009345794 2:0.018691588 3:0.046728972 4:0.009345794 5:0 6:0 7:0.009345794 8:0.009345794 9:0.009345794 10:0 11:0.018691588 12:0.018691588 13:0.028037382 14:0.028037382 15:0.08411215 16:0.009345794 17:0 18:0.009345794 19:0.046728972 20:0.009345794 21:0 22:0 23:0 24:0 25:0 26:0 27:0.018691588 28:0.009345794 29:0 30:0 31:0.009345794 32:0.037383176 33:0 34:0.009345794 35:0.009345794 36:0.018691588 37:0 38:0.009345794 39:0 40:0 41:0 42:0 43:0 44:0.018691588 45:0 46:0.009345794 47:0.037383176 48:0.028037382 49:0.009345794 50:0 51:0.056074765 52:0.028037382 53:0.009345794 54:0.009345794 55:0.009345794 56:0.046728972 57:0.018691588 58:0 59:0.028037382 60:0.056074765 61:0.028037382 62:0.046728972 63:0.06542056 
0.6272198081508561 0:0.03883495 1:0.019417476 2:0.009708738 3:0.029126214 4:0.019417476 5:0.019417476 6:0 7:0 8:0 9:0 10:0.019417476 11:0.019417476 12:0.009708738 13:0.019417476 14:0.019417476 15:0.03883495 16:0.019417476 17:0.019417476 18:0.009708738 19:0.03883495 20:0.019417476 21:0.029126214 22:0 23:0.019417476 24:0 25:0 26:0 27:0 28:0.009708738 29:0.019417476 30:0 31:0.019417476 32:0.03883495 33:0 34:0.019417476 35:0 36:0.009708738 37:0 38:0 39:0 40:0.009708738 41:0.009708738 42:0 43:0.019417476 44:0 45:0.009708738 46:0.029126214 47:0.029126214 48:0 49:0 50:0 51:0.019417476 52:0.03883495 53:0.029126214 54:0 55:0.029126214 56:0.048543688 57:0 58:0.019417476 59:0.029126214 60:0 61:0.048543688 62:0.03883495 63:0.058252428 
2.64093954549993 0:0.024793388 1:0.008264462 2:0.016528925 3:0.024793388 4:0.008264462 5:0.008264462 6:0 7:0.008264462 8:0.024793388 9:0 10:0.024793388 11:0.016528925 12:0 13:0.03305785 14:0.016528925 15:0.05785124 16:0.008264462 17:0 18:0.016528925 19:0.03305785 20:0.016528925 21:0.008264462 22:0 23:0.008264462 24:0 25:0 26:0 27:0 28:0.008264462 29:0.016528925 30:0.016528925 31:0.041322313 32:0.008264462 33:0 34:0.016528925 35:0.024793388 36:0.03305785 37:0.016528925 38:0 39:0.008264462 40:0.016528925 41:0.008264462 42:0.008264462 43:0.008264462 44:0.016528925 45:0 46:0.008264462 47:0.008264462 48:0.024793388 49:0.016528925 50:0.016528925 51:0.024793388 52:0 53:0 54:0 55:0.0661157 56:0.008264462 57:0.049586777 58:0.008264462 59:0.008264462 60:0.05785124 61:0.016528925 62:0.03305785 63:0.041322313 
2.101145039334166 0:0.04511278 1:0.007518797 2:0.007518797 3:0.030075189 4:0.02255639 5:0.007518797 6:0 7:0.02255639 8:0.007518797 9:0 10:0.02255639 11:0.015037594 12:0.05263158 13:0.015037594 14:0.02255639 15:0.02255639 16:0.015037594 17:0.015037594 18:0.007518797 19:0.02255639 20:0.02255639 21:0.007518797 22:0.007518797 23:0.030075189 24:0.02255639 25:0.007518797 26:0 27:0 28:0.007518797 29:0.015037594 30:0.02255639 31:0.015037594 32:0.02255639 33:0.007518797 34:0.015037594 35:0.02255639 36:0.007518797 37:0.02255639 38:0.007518797 39:0 40:0.007518797 41:0.015037594 42:0.007518797 43:0.015037594 44:0 45:0.007518797 46:0 47:0.02255639 48:0.007518797 49:0.02255639 50:0.015037594 51:0.037593983 52:0.007518797 53:0.030075189 54:0.015037594 55:0.007518797 56:0.030075189 57:0.015037594 58:0.015037594 59:0 60:0.02255639 61:0.02255639 62:0.015037594 63:0.037593983 
5.943644571927119 0:0.008928572 1:0 2:0.008928572 3:0.008928572 4:0 5:0 6:0 7:0.035714287 8:0.008928572 9:0.008928572 10:0.026785715 11:0.017857144 12:0.008928572 13:0.017857144 14:0.008928572 15:0.026785715 16:0.008928572 17:0.017857144 18:0.017857144 19:0.008928572 20:0.008928572 21:0.008928572 22:0 23:0.008928572 24:0.008928572 25:0 26:0 27:0 28:0.035714287 29:0 30:0.017857144 31:0.05357143 32:0 33:0.017857144 34:0.026785715 35:0 36:0.026785715 37:0.017857144 38:0.008928572 39:0.026785715 40:0.017857144 41:0.04464286 42:0.008928572 43:0 44:0.017857144 45:0.017857144 46:0.008928572 47:0.017857144 48:0.008928572 49:0 50:0.008928572 51:0.04464286 52:0.017857144 53:0 54:0 55:0.035714287 56:0.008928572 57:0.026785715 58:0.026785715 59:0.04464286 60:0 61:0.026785715 62:0.071428575 63:0.035714287 
0.86524686411083 0:0.05645161 1:0.02016129 2:0.008064516 3:0.024193548 4:0.008064516 5:0.016129032 6:0.004032258 7:0.02016129 8:0.012096774 9:0.008064516 10:0.008064516 11:0.012096774 12:0.02016129 13:0.016129032 14:0.012096774 15:0.012096774 16:0.02016129 17:0.008064516 18:0.004032258 19:0.016129032 20:0.024193548 21:0.008064516 22:0.008064516 23:0.02016129 24:0.016129032 25:0.008064516 26:0 27:0.012096774 28:0.008064516 29:0.02016129 30:0.024193548 31:0.032258064 32:0.024193548 33:0.02016129 34:0.008064516 35:0.004032258 36:0.012096774 37:0.004032258 38:0.004032258 39:0.02016129 40:0.008064516 41:0.008064516 42:0.02016129 43:0.008064516 44:0 45:0.02016129 46:0.012096774 47:0.024193548 48:0.012096774 49:0 50:0.02016129 51:0.016129032 52:0.004032258 53:0.032258064 54:0.02016129 55:0.024193548 56:0.02016129 57:0.016129032 58:0.016129032 59:0.024193548 60:0.016129032 61:0.024193548 62:0.028225806 63:0.04032258 
4.349849288729618 0:0.006756757 1:0.02027027 2:0 3:0 4:0.006756757 5:0.013513514 6:0.02027027 7:0.006756757 8:0.006756757 9:0.027027028 10:0.013513514 11:0 12:0 13:0 14:0.006756757 15:0.006756757 16:0.013513514 17:0.006756757 18:0.033783782 19:0.013513514 20:0 21:0 22:0.04054054 23:0 24:0.006756757 25:0.054054055 26:0.04054054 27:0.02027027 28:0.006756757 29:0 30:0.027027028 31:0.006756757 32:0 33:0.013513514 34:0 35:0 36:0.054054055 37:0.027027028 38:0.04054054 39:0.027027028 40:0 41:0.033783782 42:0 43:0.033783782 44:0.006756757 45:0 46:0.006756757 47:0.074324325 48:0.006756757 49:0.006756757 50:0.013513514 51:0 52:0.006756757 53:0 54:0.027027028 55:0.006756757 56:0 57:0.033783782 58:0.013513514 59:0.033783782 60:0.006756757 61:0.04054054 62:0.04054054 63:0.04054054 
1.654787118006277 0:0.04761905 1:0.035714287 2:0 3:0.04761905 4:0 5:0.035714287 6:0 7:0.023809524 8:0 9:0 10:0 11:0.023809524 12:0.023809524 13:0.023809524 14:0.04761905 15:0.023809524 16:0.023809524 17:0 18:0 19:0.05952381 20:0.035714287 21:0.035714287 22:0 23:0 24:0 25:0 26:0 27:0 28:0.011904762 29:0.023809524 30:0 31:0 32:0.011904762 33:0.011904762 34:0.023809524 35:0 36:0 37:0 38:0 39:0 40:0 41:0 42:0.023809524 43:0.023809524 44:0 45:0.011904762 46:0 47:0.04761905 48:0.05952381 49:0 50:0 51:0.011904762 52:0.04761905 53:0 54:0 55:0.011904762 56:0.04761905 57:0 58:0.023809524 59:0.011904762 60:0.035714287 61:0 62:0.035714287 63:0.035714287 
1.080382326590573 0:0.11111111 1:0.022988506 2:0.022988506 3:0.042145595 4:0.01532567 5:0 6:0.0038314175 7:0.022988506 8:0.01532567 9:0.0038314175 10:0.0038314175 11:0.011494253 12:0.01532567 13:0.026819924 14:0.019157087 15:0.03065134 16:0.042145595 17:0 18:0.007662835 19:0.022988506 20:0.019157087 21:0.0038314175 22:0 23:0.0038314175 24:0.0038314175 25:0.007662835 26:0 27:0.0038314175 28:0.0038314175 29:0.011494253 30:0.007662835 31:0.019157087 32:0.01532567 33:0.01532567 34:0.0038314175 35:0.01532567 36:0.007662835 37:0.007662835 38:0 39:0.0038314175 40:0.011494253 41:0.0038314175 42:0.007662835 43:0.007662835 44:0.007662835 45:0.0038314175 46:0.007662835 47:0.019157087 48:0.03065134 49:0.0038314175 50:0 51:0.011494253 52:0.03065134 53:0.01532567 54:0.011494253 55:0.011494253 56:0.019157087 57:0.0038314175 58:0.019157087 59:0.01532567 60:0.019157087 61:0.026819924 62:0.022988506 63:0.09578544 
1.233939353986564 0:0.067307696 1:0.009615385 2:0.028846154 3:0.009615385 4:0.01923077 5:0.01923077 6:0 7:0 8:0.048076924 9:0.01923077 10:0 11:0.01923077 12:0.009615385 13:0.009615385 14:0.01923077 15:0.01923077 16:0.01923077 17:0.01923077 18:0.009615385 19:0.01923077 20:0.01923077 21:0.009615385 22:0 23:0.028846154 24:0 25:0 26:0.009615385 27:0 28:0 29:0.01923077 30:0.01923077 31:0.028846154 32:0.028846154 33:0.009615385 34:0.028846154 35:0.01923077 36:0.01923077 37:0.01923077 38:0.009615385 39:0.009615385 40:0.01923077 41:0 42:0.01923077 43:0 44:0 45:0.009615385 46:0.01923077 47:0.01923077 48:0 49:0 50:0.01923077 51:0 52:0.009615385 53:0.009615385 54:0.009615385 55:0.028846154 56:0.01923077 57:0.03846154 58:0.009615385 59:0.028846154 60:0.009615385 61:0.01923077 62:0.03846154 63:0.028846154 
2.150283310445568 0:0.04819277 1:0 2:0.024096385 3:0.024096385 4:0.024096385 5:0.012048192 6:0 7:0.012048192 8:0.012048192 9:0.012048192 10:0.012048192 11:0 12:0.024096385 13:0.024096385 14:0.024096385 15:0.012048192 16:0.036144577 17:0.012048192 18:0 19:0.012048192 20:0.012048192 21:0.024096385 22:0.012048192 23:0 24:0 25:0 26:0 27:0.012048192 28:0.012048192 29:0.012048192 30:0.012048192 31:0.04819277 32:0.012048192 33:0.012048192 34:0 35:0.036144577 36:0.012048192 37:0 38:0 39:0.024096385 40:0.012048192 41:0 42:0 43:0.012048192 44:0.012048192 45:0.012048192 46:0.036144577 47:0 48:0 49:0.024096385 50:0.012048192 51:0.012048192 52:0.012048192 53:0.012048192 54:0 55:0.04819277 56:0.036144577 57:0.024096385 58:0.012048192 59:0.036144577 60:0 61:0.024096385 62:0.036144577 63:0.060240965 
0.06149356906681695 0:0.040609136 1:0.015228426 2:0.020304568 3:0.015228426 4:0.005076142 5:0.005076142 6:0.005076142 7:0.020304568 8:0.05076142 9:0.005076142 10:0.015228426 11:0.015228426 12:0.030456852 13:0.02538071 14:0.015228426 15:0.015228426 16:0.005076142 17:0.005076142 18:0.015228426 19:0.015228426 20:0.015228426 21:0 22:0.010152284 23:0.010152284 24:0.010152284 25:0.005076142 26:0.005076142 27:0.005076142 28:0.005076142 29:0.015228426 30:0.020304568 31:0.02538071 32:0.035532996 33:0.015228426 34:0.02538071 35:0.035532996 36:0.005076142 37:0.005076142 38:0.005076142 39:0.005076142 40:0.02538071 41:0 42:0.015228426 43:0.010152284 44:0.010152284 45:0.010152284 46:0.02538071 47:0.005076142 48:0.010152284 49:0 50:0.02538071 51:0.020304568 52:0.015228426 53:0.02538071 54:0.005076142 55:0.030456852 56:0.02538071 57:0.010152284 58:0.015228426 59:0.020304568 60:0.010152284 61:0.02538071 62:0.010152284 63:0.05076142 
0.7068366781803623 0:0.02 1:0.03 2:0.01 3:0.02 4:0.04 5:0 6:0.03 7:0.04 8:0.01 9:0.01 10:0.01 11:0 12:0.01 13:0.03 14:0.02 15:0.01 16:0.02 17:0.05 18:0.01 19:0.01 20:0.01 21:0 22:0 23:0 24:0.02 25:0.01 26:0.01 27:0.03 28:0.02 29:0.01 30:0 31:0.02 32:0.03 33:0 34:0.01 35:0.03 36:0.03 37:0 38:0.01 39:0 40:0.01 41:0.01 42:0.01 43:0.01 44:0.01 45:0.01 46:0.03 47:0.02 48:0.01 49:0.03 50:0 51:0.01 52:0.01 53:0.01 54:0.03 55:0.02 56:0.03 57:0.01 58:0.01 59:0.03 60:0 61:0.02 62:0.03 63:0.02 
1.072695705741238 0:0.006329114 1:0 2:0.012658228 3:0.01898734 4:0.006329114 5:0.006329114 6:0 7:0.006329114 8:0.050632913 9:0.025316456 10:0.012658228 11:0.025316456 12:0.056962024 13:0.012658228 14:0.025316456 15:0.01898734 16:0.006329114 17:0.006329114 18:0.01898734 19:0.025316456 20:0.012658228 21:0 22:0 23:0.012658228 24:0 25:0 26:0 27:0 28:0.012658228 29:0.012658228 30:0.01898734 31:0.03797468 32:0 33:0.006329114 34:0.03797468 35:0.01898734 36:0.012658228 37:0.006329114 38:0 39:0.025316456 40:0 41:0 42:0 43:0.01898734 44:0.012658228 45:0.012658228 46:0 47:0.03164557 48:0.025316456 49:0.006329114 50:0.044303797 51:0.050632913 52:0.025316456 53:0.006329114 54:0 55:0.03797468 56:0.012658228 57:0.01898734 58:0.006329114 59:0.012658228 60:0.044303797 61:0.03164557 62:0.012658228 63:0.03164557 
1.205404897982907 0:0.024390243 1:0 2:0.024390243 3:0.016260162 4:0.008130081 5:0.008130081 6:0 7:0 8:0.040650405 9:0.016260162 10:0.008130081 11:0.016260162 12:0.008130081 13:0.032520324 14:0.032520324 15:0.016260162 16:0.016260162 17:0.016260162 18:0.032520324 19:0.016260162 20:0.008130081 21:0.008130081 22:0.008130081 23:0.024390243 24:0.016260162 25:0.024390243 26:0 27:0 28:0 29:0.016260162 30:0.008130081 31:0.032520324 32:0.016260162 33:0 34:0.016260162 35:0.048780486 36:0.048780486 37:0.008130081 38:0 39:0.016260162 40:0.008130081 41:0 42:0.016260162 43:0.016260162 44:0.008130081 45:0.008130081 46:0.016260162 47:0.016260162 48:0.008130081 49:0.008130081 50:0.008130081 51:0.008130081 52:0.016260162 53:0.024390243 54:0.032520324 55:0.016260162 56:0.016260162 57:0.032520324 58:0.016260162 59:0.008130081 60:0.016260162 61:0.032520324 62:0.016260162 63:0.016260162 
8 0:0.03305785 1:0.041322313 2:0.016528925 3:0.008264462 4:0.016528925 5:0.008264462 6:0 7:0.03305785 8:0.024793388 9:0 10:0.016528925 11:0.024793388 12:0.008264462 13:0.024793388 14:0.024793388 15:0.016528925 16:0.016528925 17:0.016528925 18:0.03305785 19:0.024793388 20:0.03305785 21:0.008264462 22:0 23:0 24:0 25:0 26:0 27:0.008264462 28:0.024793388 29:0.008264462 30:0.016528925 31:0.016528925 32:0.041322313 33:0 34:0 35:0.024793388 36:0.016528925 37:0 38:0 39:0.008264462 40:0.03305785 41:0.008264462 42:0.008264462 43:0.008264462 44:0 45:0.016528925 46:0.016528925 47:0.03305785 48:0.008264462 49:0 50:0.016528925 51:0.016528925 52:0.024793388 53:0.024793388 54:0.008264462 55:0.024793388 56:0 57:0.016528925 58:0.03305785 59:0.024793388 60:0.008264462 61:0.041322313 62:0.016528925 63:0.016528925 
4.062696744314207 0:0 1:0 2:0.018867925 3:0 4:0 5:0 6:0 7:0 8:0.0754717 9:0 10:0 11:0.028301887 12:0.018867925 13:0.14150943 14:0.018867925 15:0.028301887 16:0 17:0 18:0 19:0.1509434 20:0 21:0 22:0 23:0 24:0 25:0 26:0 27:0.018867925 28:0 29:0 30:0 31:0.009433962 32:0.018867925 33:0 34:0.0754717 35:0.018867925 36:0 37:0 38:0 39:0 40:0 41:0 42:0 43:0 44:0.018867925 45:0.009433962 46:0.009433962 47:0.009433962 48:0 49:0 50:0.009433962 51:0.03773585 52:0.1509434 53:0 54:0.018867925 55:0.009433962 56:0.047169812 57:0 58:0 59:0 60:0.009433962 61:0.018867925 62:0.018867925 63:0.009433962 
0.6390528912016378 0:0.037037037 1:0.037037037 2:0.018518519 3:0.018518519 4:0.037037037 5:0.009259259 6:0 7:0.009259259 8:0.055555556 9:0.018518519 10:0 11:0.009259259 12:0.018518519 13:0.009259259 14:0.018518519 15:0.009259259 16:0.018518519 17:0 18:0.027777778 19:0.018518519 20:0.009259259 21:0 22:0 23:0 24:0.018518519 25:0 26:0 27:0 28:0 29:0.037037037 30:0.009259259 31:0.037037037 32:0.046296295 33:0.009259259 34:0.018518519 35:0 36:0.018518519 37:0 38:0.009259259 39:0.009259259 40:0 41:0.018518519 42:0 43:0.009259259 44:0.009259259 45:0.009259259 46:0.009259259 47:0.018518519 48:0.009259259 49:0.009259259 50:0.009259259 51:0.018518519 52:0 53:0 54:0.009259259 55:0.074074075 56:0 57:0 58:0.027777778 59:0.027777778 60:0.018518519 61:0.027777778 62:0.018518519 63:0.083333336 
5.617066789834237 0:0.03846154 1:0.03846154 2:0.012820513 3:0.012820513 4:0.012820513 5:0.03846154 6:0.025641026 7:0.025641026 8:0.012820513 9:0 10:0.012820513 11:0 12:0 13:0.025641026 14:0.012820513 15:0 16:0.012820513 17:0.012820513 18:0.012820513 19:0.012820513 20:0.025641026 21:0.012820513 22:0.025641026 23:0 24:0.012820513 25:0.012820513 26:0.012820513 27:0.06410257 28:0 29:0 30:0.025641026 31:0 32:0.051282052 33:0.012820513 34:0 35:0 36:0 37:0 38:0.012820513 39:0 40:0.025641026 41:0 42:0 43:0.025641026 44:0.051282052 45:0.012820513 46:0 47:0.051282052 48:0 49:0.03846154 50:0 51:0.012820513 52:0.012820513 53:0.012820513 54:0.03846154 55:0 56:0.012820513 57:0 58:0.025641026 59:0.025641026 60:0 61:0.025641026 62:0.025641026 63:0.012820513 
5.364949182717356 0:0.08450704 1:0.028169014 2:0.014084507 3:0.07042254 4:0 5:0.014084507 6:0 7:0.028169014 8:0.04225352 9:0.014084507 10:0.014084507 11:0 12:0 13:0.04225352 14:0.04225352 15:0.014084507 16:0 17:0 18:0.014084507 19:0 20:0 21:0 22:0.014084507 23:0.014084507 24:0.014084507 25:0 26:0 27:0.014084507 28:0.028169014 29:0.014084507 30:0.014084507 31:0.014084507 32:0.07042254 33:0.014084507 34:0 35:0.028169014 36:0 37:0 38:0.014084507 39:0 40:0.014084507 41:0 42:0 43:0 44:0.014084507 45:0 46:0.014084507 47:0 48:0.04225352 49:0 50:0.04225352 51:0 52:0.014084507 53:0.014084507 54:0 55:0.028169014 56:0.056338027 57:0 58:0 59:0.014084507 60:0.04225352 61:0 62:0 63:0.028169014 
0.5897045283583738 0:0.10576923 1:0 2:0.009615385 3:0.048076924 4:0.009615385 5:0 6:0.009615385 7:0 8:0.01923077 9:0.01923077 10:0.01923077 11:0 12:0 13:0.01923077 14:0.048076924 15:0.03846154 16:0.028846154 17:0 18:0 19:0.01923077 20:0 21:0 22:0 23:0 24:0.009615385 25:0 26:0 27:0 28:0 29:0 30:0.009615385 31:0.03846154 32:0.009615385 33:0.009615385 34:0.03846154 35:0.01923077 36:0.028846154 37:0 38:0 39:0.028846154 40:0.01923077 41:0 42:0 43:0.009615385 44:0 45:0.009615385 46:0 47:0.028846154 48:0.009615385 49:0.009615385 50:0.009615385 51:0.01923077 52:0.009615385 53:0 54:0 55:0.01923077 56:0.028846154 57:0.03846154 58:0.009615385 59:0.028846154 60:0.048076924 61:0 62:0.048076924 63:0.067307696 
4.336898717851512 0:0.08256881 1:0.018348623 2:0.0091743115 3:0.055045873 4:0.027522936 5:0.0091743115 6:0.018348623 7:0.027522936 8:0.0091743115 9:0 10:0.027522936 11:0.0091743115 12:0.036697246 13:0 14:0.018348623 15:0.036697246 16:0.0091743115 17:0.0091743115 18:0 19:0.018348623 20:0.0091743115 21:0 22:0.0091743115 23:0.0091743115 24:0.018348623 25:0 26:0.0091743115 27:0 28:0.0091743115 29:0.0091743115 30:0 31:0.018348623 32:0.04587156 33:0.027522936 34:0.018348623 35:0.0091743115 36:0 37:0 38:0 39:0 40:0.036697246 41:0 42:0.04587156 43:0.0091743115 44:0.018348623 45:0.018348623 46:0 47:0 48:0.027522936 49:0.027522936 50:0.018348623 51:0.0091743115 52:0 53:0.018348623 54:0 55:0 56:0.027522936 57:0 58:0.0091743115 59:0.018348623 60:0.018348623 61:0 62:0.036697246 63:0.04587156 
8 0:0.012048192 1:0.006024096 2:0.030120483 3:0.024096385 4:0.018072288 5:0.018072288 6:0 7:0.006024096 8:0.030120483 9:0.006024096 10:0.012048192 11:0.018072288 12:0.024096385 13:0.012048192 14:0.036144577 15:0.024096385 16:0.030120483 17:0.012048192 18:0.006024096 19:0.018072288 20:0.012048192 21:0.006024096 22:0.006024096 23:0.012048192 24:0.006024096 25:0.012048192 26:0 27:0 28:0.012048192 29:0.012048192 30:0.006024096 31:0.006024096 32:0.018072288 33:0 34:0.012048192 35:0.036144577 36:0.024096385 37:0.006024096 38:0.006024096 39:0 40:0.012048192 41:0.006024096 42:0 43:0.018072288 44:0.036144577 45:0.006024096 46:0.018072288 47:0.024096385 48:0.012048192 49:0.024096385 50:0.018072288 51:0.018072288 52:0.012048192 53:0.012048192 54:0.006024096 55:0.018072288 56:0.018072288 57:0.012048192 58:0.024096385 59:0.04819277 60:0 61:0.012048192 62:0.042168673 63:0.06626506 
8 0:0.024096385 1:0 2:0.024096385 3:0.036144577 4:0 5:0.012048192 6:0 7:0.012048192 8:0.012048192 9:0.04819277 10:0.024096385 11:0.012048192 12:0.024096385 13:0.012048192 14:0 15:0.024096385 16:0.024096385 17:0.012048192 18:0.024096385 19:0.012048192 20:0.024096385 21:0 22:0 23:0.024096385 24:0.012048192 25:0 26:0 27:0 28:0.012048192 29:0.012048192 30:0.024096385 31:0.036144577 32:0.012048192 33:0.012048192 34:0.024096385 35:0.012048192 36:0.036144577 37:0 38:0 39:0.04819277 40:0.012048192 41:0.012048192 42:0 43:0 44:0 45:0.036144577 46:0 47:0.012048192 48:0.024096385 49:0 50:0.012048192 51:0 52:0.012048192 53:0.036144577 54:0.012048192 55:0.012048192 56:0.024096385 57:0.024096385 58:0 59:0.036144577 60:0 61:0.012048192 62:0.060240965 63:0.036144577 
6.710719304004153 0:0.010416667 1:0.010416667 2:0.020833334 3:0.041666668 4:0 5:0.020833334 6:0 7:0.010416667 8:0.020833334 9:0 10:0 11:0.010416667 12:0.041666668 13:0.010416667 14:0.020833334 15:0.072916664 16:0.03125 17:0 18:0.010416667 19:0.03125 20:0.03125 21:0.010416667 22:0 23:0 24:0 25:0 26:0 27:0 28:0.010416667 29:0.010416667 30:0.010416667 31:0 32:0 33:0 34:0 35:0.020833334 36:0 37:0.010416667 38:0 39:0.010416667 40:0 41:0.020833334 42:0.010416667 43:0.03125 44:0.010416667 45:0.010416667 46:0 47:0.03125 48:0.041666668 49:0.020833334 50:0 51:0.052083332 52:0.041666668 53:0 54:0 55:0.010416667 56:0 57:0 58:0.052083332 59:0.010416667 60:0.052083332 61:0.010416667 62:0.03125 63:0.083333336 
5.067674243756908 0:0.03305785 1:0.03305785 2:0.008264462 3:0.03305785 4:0.024793388 5:0.008264462 6:0.016528925 7:0.024793388 8:0.008264462 9:0.008264462 10:0 11:0.008264462 12:0.024793388 13:0 14:0.016528925 15:0.041322313 16:0.049586777 17:0.008264462 18:0.008264462 19:0.024793388 20:0.024793388 21:0.008264462 22:0 23:0 24:0.016528925 25:0 26:0 27:0.016528925 28:0.016528925 29:0 30:0.008264462 31:0.016528925 32:0.016528925 33:0.016528925 34:0 35:0.008264462 36:0.016528925 37:0.008264462 38:0 39:0 40:0 41:0 42:0 43:0.008264462 44:0 45:0.016528925 46:0.016528925 47:0.03305785 48:0.016528925 49:0.016528925 50:0.008264462 51:0.016528925 52:0.024793388 53:0.008264462 54:0.016528925 55:0.016528925 56:0.016528925 57:0.016528925 58:0.008264462 59:0.03305785 60:0.016528925 61:0.049586777 62:0.03305785 63:0.07438017 
2.820171984527834 0:0.028301887 1:0.018867925 2:0.018867925 3:0.03773585 4:0.028301887 5:0 6:0.009433962 7:0.009433962 8:0.028301887 9:0.009433962 10:0 11:0.028301887 12:0.028301887 13:0.018867925 14:0.018867925 15:0.028301887 16:0.028301887 17:0 18:0.009433962 19:0.028301887 20:0.009433962 21:0 22:0 23:0 24:0 25:0.009433962 26:0 27:0.028301887 28:0.009433962 29:0 30:0 31:0.018867925 32:0 33:0.009433962 34:0.028301887 35:0 36:0.018867925 37:0 38:0.009433962 39:0.009433962 40:0 41:0 42:0 43:0 44:0.018867925 45:0.018867925 46:0.018867925 47:0.047169812 48:0.047169812 49:0.018867925 50:0 51:0.028301887 52:0.009433962 53:0.009433962 54:0.018867925 55:0.018867925 56:0.009433962 57:0.018867925 58:0 59:0.047169812 60:0.03773585 61:0.018867925 62:0.03773585 63:0.047169812 
0.1083039589033517 0:0.022058824 1:0.029411765 2:0.014705882 3:0 4:0.036764707 5:0.022058824 6:0 7:0.014705882 8:0.029411765 9:0.007352941 10:0.022058824 11:0.007352941 12:0.036764707 13:0.007352941 14:0.022058824 15:0.007352941 16:0.022058824 17:0.007352941 18:0.014705882 19:0.029411765 20:0.022058824 21:0 22:0.014705882 23:0.022058824 24:0.007352941 25:0.007352941 26:0.014705882 27:0 28:0.014705882 29:0.014705882 30:0.007352941 31:0.014705882 32:0.022058824 33:0.014705882 34:0.014705882 35:0.007352941 36:0 37:0.014705882 38:0.007352941 39:0.014705882 40:0.007352941 41:0.014705882 42:0.014705882 43:0.036764707 44:0.022058824 45:0 46:0.014705882 47:0.029411765 48:0 49:0.022058824 50:0.022058824 51:0.036764707 52:0.014705882 53:0.014705882 54:0.007352941 55:0 56:0.014705882 57:0.007352941 58:0.022058824 59:0.029411765 60:0.007352941 61:0.014705882 62:0.029411765 63:0.029411765 
1.521180120297116 0:0.017441861 1:0.017441861 2:0.011627907 3:0.023255814 4:0.029069768 5:0 6:0.017441861 7:0.0058139535 8:0.017441861 9:0.029069768 10:0.011627907 11:0 12:0.034883723 13:0.05232558 14:0.011627907 15:0.023255814 16:0.023255814 17:0.023255814 18:0.029069768 19:0.023255814 20:0.0058139535 21:0 22:0 23:0.0058139535 24:0.011627907 25:0 26:0.0058139535 27:0.017441861 28:0.017441861 29:0.0058139535 30:0.017441861 31:0.011627907 32:0.017441861 33:0.0058139535 34:0.011627907 35:0.034883723 36:0.023255814 37:0 38:0 39:0.017441861 40:0.023255814 41:0.0058139535 42:0 43:0.0058139535 44:0 45:0 46:0.011627907 47:0.023255814 48:0.011627907 49:0.0058139535 50:0.0058139535 51:0.040697675 52:0.034883723 53:0.011627907 54:0.017441861 55:0.023255814 56:0.017441861 57:0.0058139535 58:0.017441861 59:0.011627907 60:0.011627907 61:0.029069768 62:0.017441861 63:0.058139537 
6.993822722004101 0:0.054347824 1:0.032608695 2:0.02173913 3:0.02173913 4:0.010869565 5:0 6:0 7:0.04347826 8:0.04347826 9:0 10:0.010869565 11:0.032608695 12:0.02173913 13:0.010869565 14:0 15:0.04347826 16:0.02173913 17:0 18:0.010869565 19:0 20:0.010869565 21:0 22:0 23:0 24:0.010869565 25:0 26:0 27:0 28:0.02173913 29:0.010869565 30:0.010869565 31:0.04347826 32:0.010869565 33:0 34:0.032608695 35:0.02173913 36:0 37:0 38:0 39:0.010869565 40:0.010869565 41:0.010869565 42:0.010869565 43:0 44:0.010869565 45:0 46:0 47:0.02173913 48:0.04347826 49:0.02173913 50:0.02173913 51:0.032608695 52:0.010869565 53:0.010869565 54:0.010869565 55:0.032608695 56:0.010869565 57:0 58:0.010869565 59:0 60:0.06521739 61:0.032608695 62:0.010869565 63:0.054347824 
8 0:0.08256881 1:0.036697246 2:0.055045873 3:0.027522936 4:0.036697246 5:0.018348623 6:0 7:0 8:0.036697246 9:0.0091743115 10:0.027522936 11:0 12:0.0091743115 13:0.0091743115 14:0.036697246 15:0.018348623 16:0.036697246 17:0.0091743115 18:0.0091743115 19:0.0091743115 20:0.018348623 21:0 22:0 23:0.018348623 24:0 25:0 26:0 27:0.0091743115 28:0.027522936 29:0 30:0 31:0.027522936 32:0.04587156 33:0 34:0.0091743115 35:0.018348623 36:0.0091743115 37:0.0091743115 38:0.0091743115 39:0.0091743115 40:0.0091743115 41:0.018348623 42:0 43:0.0091743115 44:0 45:0 46:0 47:0.027522936 48:0.027522936 49:0.0091743115 50:0 51:0.018348623 52:0 53:0.0091743115 54:0 55:0.027522936 56:0.027522936 57:0.0091743115 58:0.0091743115 59:0.0091743115 60:0.018348623 61:0.027522936 62:0.018348623 63:0.04587156 
0.3561672756504506 0:0.005291005 1:0.02116402 2:0.015873017 3:0.04232804 4:0.02116402 5:0.01058201 6:0.01058201 7:0.01058201 8:0.031746034 9:0 10:0 11:0.031746034 12:0.04761905 13:0.04232804 14:0.02116402 15:0.037037037 16:0.015873017 17:0.015873017 18:0.01058201 19:0.026455026 20:0.02116402 21:0.015873017 22:0 23:0 24:0.005291005 25:0 26:0.005291005 27:0.005291005 28:0.02116402 29:0 30:0 31:0.005291005 32:0.015873017 33:0 34:0.02116402 35:0.037037037 36:0 37:0 38:0.005291005 39:0 40:0.015873017 41:0.005291005 42:0.01058201 43:0.02116402 44:0.026455026 45:0.005291005 46:0.02116402 47:0.01058201 48:0.04232804 49:0.015873017 50:0.015873017 51:0.04232804 52:0.026455026 53:0.01058201 54:0 55:0.015873017 56:0.02116402 57:0 58:0.037037037 59:0.005291005 60:0.02116402 61:0.01058201 62:0.02116402 63:0.02116402 
0.3081432837076689 0:0.03409091 1:0.0056818184 2:0.011363637 3:0.011363637 4:0.0056818184 5:0.0056818184 6:0.017045455 7:0.0056818184 8:0.017045455 9:0 10:0 11:0.017045455 12:0.03409091 13:0.03409091 14:0.011363637 15:0.022727273 16:0.011363637 17:0.011363637 18:0.0056818184 19:0.022727273 20:0.017045455 21:0 22:0.0056818184 23:0.011363637 24:0 25:0 26:0.0056818184 27:0.022727273 28:0.011363637 29:0.022727273 30:0.028409092 31:0.028409092 32:0.011363637 33:0.0056818184 34:0.0056818184 35:0.022727273 36:0 37:0.0056818184 38:0 39:0.03409091 40:0.011363637 41:0 42:0 43:0.011363637 44:0.0056818184 45:0.017045455 46:0.03409091 47:0.017045455 48:0.0056818184 49:0.017045455 50:0.0056818184 51:0.045454547 52:0.028409092 53:0.022727273 54:0.0056818184 55:0.039772727 56:0.017045455 57:0.039772727 58:0.017045455 59:0.022727273 60:0.022727273 61:0.022727273 62:0.022727273 63:0.045454547 
3.007172712575527 0:0.073891625 1:0.009852217 2:0.039408866 3:0.044334974 4:0.0049261083 5:0.019704433 6:0.0049261083 7:0.014778325 8:0.014778325 9:0.024630541 10:0.0049261083 11:0.019704433 12:0.0049261083 13:0.02955665 14:0.014778325 15:0.03448276 16:0.044334974 17:0.0049261083 18:0.0049261083 19:0.014778325 20:0.014778325 21:0 22:0 23:0.0049261083 24:0.0049261083 25:0 26:0 27:0.0049261083 28:0.009852217 29:0.0049261083 30:0.009852217 31:0.044334974 32:0.03448276 33:0.0049261083 34:0.009852217 35:0.024630541 36:0.009852217 37:0 38:0 39:0.019704433 40:0.0049261083 41:0.0049261083 42:0 43:0.009852217 44:0.019704433 45:0.019704433 46:0 47:0.0049261083 48:0.014778325 49:0.019704433 50:0.009852217 51:0.0049261083 52:0.039408866 53:0 54:0.0049261083 55:0.02955665 56:0.049261082 57:0 58:0.014778325 59:0.009852217 60:0.014778325 61:0.019704433 62:0.049261082 63:0.024630541 
1.866189801514797 0:0.04833837 1:0.018126888 2:0.04531722 3:0.021148037 4:0.01510574 5:0.009063444 6:0.006042296 7:0.009063444 8:0.01510574 9:0.018126888 10:0.012084592 11:0.021148037 12:0.012084592 13:0.03323263 14:0.01510574 15:0.01510574 16:0.027190333 17:0.009063444 18:0.006042296 19:0.027190333 20:0.018126888 21:0.006042296 22:0.006042296 23:0.009063444 24:0.009063444 25:0.003021148 26:0.006042296 27:0.003021148 28:0.006042296 29:0.006042296 30:0.006042296 31:0.036253776 32:0.036253776 33:0.009063444 34:0.006042296 35:0.01510574 36:0.01510574 37:0.012084592 38:0 39:0.012084592 40:0.009063444 41:0.006042296 42:0.009063444 43:0.018126888 44:0.009063444 45:0.009063444 46:0.03021148 47:0.009063444 48:0.018126888 49:0.003021148 50:0.009063444 51:0.012084592 52:0.021148037 53:0.012084592 54:0.009063444 55:0.024169184 56:0.03323263 57:0.012084592 58:0.01510574 59:0.01510574 60:0.01510574 61:0.018126888 62:0.027190333 63:0.051359516 
0.3134999355286312 0:0.020242915 1:0.016194332 2:0.020242915 3:0.016194332 4:0.024291499 5:0.020242915 6:0.016194332 7:0.004048583 8:0.008097166 9:0.04453441 10:0 11:0.020242915 12:0.012145749 13:0.016194332 14:0.024291499 15:0.016194332 16:0.020242915 17:0.024291499 18:0.02834008 19:0.02834008 20:0.02834008 21:0 22:0.012145749 23:0.004048583 24:0.012145749 25:0.004048583 26:0.016194332 27:0.012145749 28:0.012145749 29:0 30:0.012145749 31:0.008097166 32:0.020242915 33:0.008097166 34:0.004048583 35:0.008097166 36:0.024291499 37:0.020242915 38:0.016194332 39:0.020242915 40:0.008097166 41:0.008097166 42:0 43:0.02834008 44:0.020242915 45:0.008097166 46:0.02834008 47:0.020242915 48:0.012145749 49:0.016194332 50:0.020242915 51:0.016194332 52:0.02834008 53:0.004048583 54:0 55:0.004048583 56:0.012145749 57:0.024291499 58:0.02834008 59:0.016194332 60:0.016194332 61:0.012145749 62:0.016194332 63:0.02834008 
8 0:0.040609136 1:0.015228426 2:0.020304568 3:0.020304568 4:0.02538071 5:0.015228426 6:0 7:0.005076142 8:0.02538071 9:0.010152284 10:0.020304568 11:0.015228426 12:0.010152284 13:0.02538071 14:0.05076142 15:0.020304568 16:0.015228426 17:0.010152284 18:0.030456852 19:0.02538071 20:0.020304568 21:0.005076142 22:0.015228426 23:0 24:0.015228426 25:0 26:0.005076142 27:0.010152284 28:0.005076142 29:0.005076142 30:0 31:0.010152284 32:0.035532996 33:0.015228426 34:0.010152284 35:0.030456852 36:0.005076142 37:0 38:0.005076142 39:0.010152284 40:0.015228426 41:0.005076142 42:0.015228426 43:0.020304568 44:0.015228426 45:0.020304568 46:0.015228426 47:0.020304568 48:0.005076142 49:0.005076142 50:0.010152284 51:0.030456852 52:0.02538071 53:0.020304568 54:0.010152284 55:0.005076142 56:0.035532996 57:0.005076142 58:0.015228426 59:0.02538071 60:0.020304568 61:0.015228426 62:0.015228426 63:0.02538071 
3.251776247484211 0:0 1:0 2:0.038251366 3:0.021857923 4:0.0054644807 5:0 6:0.010928961 7:0.0054644807 8:0.021857923 9:0.010928961 10:0.027322404 11:0.016393442 12:0.010928961 13:0.027322404 14:0.021857923 15:0.021857923 16:0.0054644807 17:0 18:0.010928961 19:0.021857923 20:0.0054644807 21:0 22:0 23:0 24:0 25:0.010928961 26:0 27:0 28:0.016393442 29:0.0054644807 30:0.010928961 31:0.04918033 32:0.027322404 33:0.0054644807 34:0.021857923 35:0.021857923 36:0.010928961 37:0.0054644807 38:0 39:0.027322404 40:0.027322404 41:0.0054644807 42:0.010928961 43:0.027322404 44:0.0054644807 45:0.010928961 46:0.016393442 47:0.027322404 48:0.027322404 49:0.016393442 50:0.0054644807 51:0.016393442 52:0.016393442 53:0 54:0 55:0.04918033 56:0.027322404 57:0.016393442 58:0.027322404 59:0.021857923 60:0.032786883 61:0.021857923 62:0.043715846 63:0.04918033 
2.482095882502035 0:0.030812325 1:0.019607844 2:0.022408964 3:0.028011205 4:0.022408964 5:0.005602241 6:0.005602241 7:0.019607844 8:0.005602241 9:0.008403362 10:0.011204482 11:0.016806724 12:0.016806724 13:0.028011205 14:0.030812325 15:0.039215688 16:0.028011205 17:0.014005602 18:0.011204482 19:0.022408964 20:0.011204482 21:0.005602241 22:0.008403362 23:0 24:0.011204482 25:0 26:0.008403362 27:0.005602241 28:0.008403362 29:0.005602241 30:0.008403362 31:0.025210084 32:0.028011205 33:0.014005602 34:0.005602241 35:0.036414567 36:0.011204482 37:0.0028011205 38:0.0028011205 39:0.011204482 40:0.022408964 41:0.0028011205 42:0.011204482 43:0.014005602 44:0.011204482 45:0.0028011205 46:0.014005602 47:0.016806724 48:0.016806724 49:0.005602241 50:0.0028011205 51:0.028011205 52:0.028011205 53:0.011204482 54:0.008403362 55:0.016806724 56:0.04481793 57:0.016806724 58:0.019607844 59:0.008403362 60:0.016806724 61:0.028011205 62:0.036414567 63:0.019607844 
8 0:0.038194444 1:0.041666668 2:0.024305556 3:0.017361112 4:0.017361112 5:0.017361112 6:0 7:0.017361112 8:0.024305556 9:0.017361112 10:0.017361112 11:0.010416667 12:0.013888889 13:0.0069444445 14:0.010416667 15:0.017361112 16:0.034722224 17:0 18:0.017361112 19:0.0069444445 20:0.0034722222 21:0.017361112 22:0.0034722222 23:0.041666668 24:0 25:0 26:0.0034722222 27:0 28:0.0069444445 29:0.03125 30:0.020833334 31:0.041666668 32:0.03125 33:0 34:0.017361112 35:0.010416667 36:0.013888889 37:0.010416667 38:0 39:0.013888889 40:0.024305556 41:0.0069444445 42:0.017361112 43:0.0069444445 44:0.010416667 45:0.0034722222 46:0.0069444445 47:0.013888889 48:0.017361112 49:0.010416667 50:0.010416667 51:0.017361112 52:0.024305556 53:0.020833334 54:0 55:0.027777778 56:0.0069444445 57:0.013888889 58:0.017361112 59:0.017361112 60:0.024305556 61:0.03125 62:0.017361112 63:0.034722224 
8 0:0.00913242 1:0.01369863 2:0.04109589 3:0 4:0.02739726 5:0.00913242 6:0.01826484 7:0.00456621 8:0.03196347 9:0.03196347 10:0.03196347 11:0.03196347 12:0.01826484 13:0.01369863 14:0.01369863 15:0.00913242 16:0.03196347 17:0.01826484 18:0.02739726 19:0.01369863 20:0.01369863 21:0 22:0.00456621 23:0.00456621 24:0.00456621 25:0.00456621 26:0.01369863 27:0.00913242 28:0.00913242 29:0.01369863 30:0.00456621 31:0.02283105 32:0.01369863 33:0.00913242 34:0.05022831 35:0.02283105 36:0.02283105 37:0.00456621 38:0.00913242 39:0.02283105 40:0.03196347 41:0.00456621 42:0.00913242 43:0.01369863 44:0.01826484 45:0 46:0.02283105 47:0.01826484 48:0.00913242 49:0.01826484 50:0.00913242 51:0.01826484 52:0.02739726 53:0.00913242 54:0 55:0.01826484 56:0.02739726 57:0.01826484 58:0.00456621 59:0.00456621 60:0.00913242 61:0.02739726 62:0.01369863 63:0.00913242 
0.235274073942002 0:0.00913242 1:0.01369863 2:0.04109589 3:0 4:0.02739726 5:0.00913242 6:0.01826484 7:0.00456621 8:0.03196347 9:0.03196347 10:0.03196347 11:0.03196347 12:0.01826484 13:0.01369863 14:0.01369863 15:0.00913242 16:0.03196347 17:0.01826484 18:0.02739726 19:0.01369863 20:0.01369863 21:0 22:0.00456621 23:0.00456621 24:0.00456621 25:0.00456621 26:0.01369863 27:0.00913242 28:0.00913242 29:0.01369863 30:0.00456621 31:0.02283105 32:0.01369863 33:0.00913242 34:0.05022831 35:0.02283105 36:0.02283105 37:0.00456621 38:0.00913242 39:0.02283105 40:0.03196347 41:0.00456621 42:0.00913242 43:0.01369863 44:0.01826484 45:0 46:0.02283105 47:0.01826484 48:0.00913242 49:0.01826484 50:0.00913242 51:0.01826484 52:0.02739726 53:0.00913242 54:0 55:0.01826484 56:0.02739726 57:0.01826484 58:0.00456621 59:0.00456621 60:0.00913242 61:0.02739726 62:0.01369863 63:0.00913242 
0.2824320142233189 0:0.016129032 1:0 2:0.032258064 3:0.048387095 4:0.008064516 5:0.008064516 6:0 7:0.024193548 8:0.024193548 9:0.016129032 10:0 11:0.04032258 12:0.05645161 13:0.008064516 14:0.024193548 15:0.04032258 16:0.024193548 17:0.008064516 18:0.008064516 19:0 20:0.016129032 21:0 22:0 23:0 24:0 25:0 26:0 27:0 28:0.04032258 29:0.008064516 30:0.008064516 31:0.008064516 32:0.008064516 33:0.016129032 34:0.008064516 35:0.024193548 36:0 37:0 38:0 39:0.016129032 40:0.008064516 41:0 42:0.008064516 43:0.016129032 44:0.04032258 45:0.016129032 46:0.008064516 47:0.016129032 48:0.048387095 49:0.016129032 50:0.032258064 51:0.05645161 52:0.016129032 53:0.008064516 54:0 55:0.024193548 56:0.024193548 57:0 58:0.024193548 59:0.024193548 60:0.016129032 61:0.016129032 62:0.032258064 63:0.008064516 
2.683897127229577 0:0.015384615 1:0.015384615 2:0.015384615 3:0.03076923 4:0.0076923077 5:0 6:0.0076923077 7:0.0076923077 8:0.023076924 9:0.0076923077 10:0.0076923077 11:0.015384615 12:0.015384615 13:0.0076923077 14:0.06153846 15:0.023076924 16:0.03076923 17:0 18:0 19:0.023076924 20:0 21:0 22:0.0076923077 23:0.0076923077 24:0.015384615 25:0 26:0 27:0.015384615 28:0 29:0.0076923077 30:0 31:0.046153847 32:0.03076923 33:0.0076923077 34:0.03846154 35:0.03076923 36:0.0076923077 37:0 38:0.0076923077 39:0 40:0.03076923 41:0 42:0 43:0.0076923077 44:0.015384615 45:0.03846154 46:0.0076923077 47:0.0076923077 48:0 49:0.0076923077 50:0 51:0.023076924 52:0.03846154 53:0.015384615 54:0.0076923077 55:0.03846154 56:0.03846154 57:0.0076923077 58:0.03076923 59:0.023076924 60:0 61:0.046153847 62:0.03076923 63:0.046153847 
2.542650185868919 0:0.07777778 1:0.022222223 2:0.022222223 3:0.044444446 4:0 5:0.033333335 6:0 7:0.022222223 8:0 9:0.011111111 10:0.011111111 11:0.022222223 12:0.044444446 13:0 14:0.011111111 15:0.033333335 16:0.022222223 17:0 18:0.022222223 19:0 20:0 21:0 22:0 23:0.033333335 24:0 25:0 26:0 27:0 28:0.011111111 29:0.011111111 30:0 31:0.055555556 32:0.033333335 33:0.011111111 34:0 35:0.022222223 36:0 37:0 38:0 39:0.011111111 40:0 41:0 42:0 43:0.011111111 44:0.011111111 45:0.011111111 46:0 47:0.011111111 48:0.033333335 49:0.022222223 50:0 51:0.022222223 52:0.044444446 53:0 54:0 55:0.011111111 56:0.06666667 57:0 58:0 59:0 60:0.011111111 61:0.033333335 62:0.055555556 63:0.06666667 
0.5321270375576522 0:0.020618556 1:0.030927835 2:0.010309278 3:0.041237112 4:0.010309278 5:0.010309278 6:0.020618556 7:0.010309278 8:0.010309278 9:0.020618556 10:0 11:0.010309278 12:0.030927835 13:0.030927835 14:0.041237112 15:0.030927835 16:0.041237112 17:0.010309278 18:0.010309278 19:0.030927835 20:0.020618556 21:0 22:0 23:0 24:0.010309278 25:0.020618556 26:0.010309278 27:0.020618556 28:0.020618556 29:0.010309278 30:0.010309278 31:0 32:0.010309278 33:0 34:0.010309278 35:0.041237112 36:0.030927835 37:0 38:0.010309278 39:0.020618556 40:0.010309278 41:0 42:0 43:0.010309278 44:0.010309278 45:0.030927835 46:0 47:0.010309278 48:0.030927835 49:0.010309278 50:0 51:0.020618556 52:0.030927835 53:0.010309278 54:0.030927835 55:0.010309278 56:0.030927835 57:0.020618556 58:0.010309278 59:0.010309278 60:0 61:0.010309278 62:0.020618556 63:0.010309278 
4.393580992655275 0:0.03448276 1:0.03448276 2:0.01724138 3:0.02586207 4:0.060344826 5:0 6:0 7:0.00862069 8:0.01724138 9:0 10:0.00862069 11:0.03448276 12:0.05172414 13:0.00862069 14:0.03448276 15:0.03448276 16:0.01724138 17:0.00862069 18:0 19:0.04310345 20:0 21:0 22:0 23:0.01724138 24:0 25:0 26:0 27:0 28:0.00862069 29:0 30:0.00862069 31:0.01724138 32:0.04310345 33:0.00862069 34:0.00862069 35:0 36:0 37:0.00862069 38:0 39:0 40:0.00862069 41:0 42:0 43:0.00862069 44:0.01724138 45:0 46:0 47:0.03448276 48:0.01724138 49:0.00862069 50:0.03448276 51:0.060344826 52:0.00862069 53:0.00862069 54:0 55:0.00862069 56:0.03448276 57:0.00862069 58:0.00862069 59:0.01724138 60:0.04310345 61:0.01724138 62:0.02586207 63:0.06896552 
5.334667541548269 0:0.016304348 1:0 2:0.02173913 3:0.010869565 4:0.027173912 5:0 6:0 7:0.010869565 8:0.097826086 9:0.027173912 10:0.010869565 11:0.010869565 12:0.016304348 13:0.02173913 14:0.032608695 15:0 16:0.0054347827 17:0.016304348 18:0.032608695 19:0.010869565 20:0.010869565 21:0.0054347827 22:0.010869565 23:0.0054347827 24:0.010869565 25:0.0054347827 26:0.016304348 27:0.010869565 28:0.010869565 29:0.010869565 30:0.02173913 31:0.02173913 32:0.027173912 33:0.016304348 34:0.07065217 35:0.04347826 36:0.010869565 37:0.02173913 38:0.016304348 39:0.027173912 40:0.010869565 41:0.02173913 42:0 43:0 44:0 45:0.010869565 46:0.010869565 47:0.0054347827 48:0 49:0.0054347827 50:0.016304348 51:0.0054347827 52:0.016304348 53:0.0054347827 54:0.016304348 55:0.027173912 56:0.038043477 57:0.02173913 58:0.0054347827 59:0.0054347827 60:0 61:0.02173913 62:0.0054347827 63:0.0054347827 
0.3115539564140624 0:0 1:0 2:0.02631579 3:0.00877193 4:0.02631579 5:0.00877193 6:0.03508772 7:0.01754386 8:0.05263158 9:0.03508772 10:0 11:0.00877193 12:0 13:0.00877193 14:0 15:0.00877193 16:0 17:0.02631579 18:0.04385965 19:0.00877193 20:0 21:0 22:0.00877193 23:0.00877193 24:0.02631579 25:0.00877193 26:0.01754386 27:0.01754386 28:0 29:0.03508772 30:0.04385965 31:0.01754386 32:0.03508772 33:0.05263158 34:0.02631579 35:0 36:0.03508772 37:0.00877193 38:0.02631579 39:0.03508772 40:0.00877193 41:0.01754386 42:0.00877193 43:0 44:0 45:0.00877193 46:0.01754386 47:0.01754386 48:0 49:0.00877193 50:0 51:0 52:0.01754386 53:0 54:0 55:0.04385965 56:0.02631579 57:0.04385965 58:0 59:0.01754386 60:0.00877193 61:0.00877193 62:0.02631579 63:0 
1.970675827649713 0:0 1:0.011627907 2:0.023255814 3:0 4:0.023255814 5:0.023255814 6:0 7:0.011627907 8:0.011627907 9:0.023255814 10:0.011627907 11:0 12:0 13:0 14:0.046511628 15:0 16:0.034883723 17:0.023255814 18:0 19:0.034883723 20:0.046511628 21:0.023255814 22:0 23:0.034883723 24:0 25:0 26:0 27:0.011627907 28:0.011627907 29:0.011627907 30:0.046511628 31:0 32:0 33:0.011627907 34:0.011627907 35:0 36:0.023255814 37:0.046511628 38:0.011627907 39:0.011627907 40:0.011627907 41:0.023255814 42:0.011627907 43:0.034883723 44:0.023255814 45:0.011627907 46:0.058139537 47:0.011627907 48:0 49:0.011627907 50:0.011627907 51:0.011627907 52:0 53:0.011627907 54:0 55:0.011627907 56:0 57:0.058139537 58:0.058139537 59:0.046511628 60:0 61:0 62:0.011627907 63:0 
8 0:0.00591716 1:0.01775148 2:0 3:0.01183432 4:0.00591716 5:0.00591716 6:0.01183432 7:0 8:0.00591716 9:0.01183432 10:0.01183432 11:0.01183432 12:0.00591716 13:0.03550296 14:0.00591716 15:0.00591716 16:0.01183432 17:0 18:0.02366864 19:0.00591716 20:0.01775148 21:0.01183432 22:0 23:0.041420117 24:0.0295858 25:0.02366864 26:0.01183432 27:0 28:0 29:0.01183432 30:0.02366864 31:0.041420117 32:0.01183432 33:0.00591716 34:0.01775148 35:0.0295858 36:0.01775148 37:0.02366864 38:0.0295858 39:0.00591716 40:0.01183432 41:0.01775148 42:0.01775148 43:0.02366864 44:0 45:0.00591716 46:0.02366864 47:0.02366864 48:0.00591716 49:0 50:0 51:0.00591716 52:0 53:0.03550296 54:0.02366864 55:0.0295858 56:0.01775148 57:0.02366864 58:0.02366864 59:0.01775148 60:0.00591716 61:0.03550296 62:0.0295858 63:0.07100592 
4.044505993812638 0:0 1:0.0064935065 2:0.019480519 3:0 4:0 5:0.0064935065 6:0.012987013 7:0.012987013 8:0.025974026 9:0.019480519 10:0.012987013 11:0.0064935065 12:0.012987013 13:0.025974026 14:0.012987013 15:0 16:0 17:0.025974026 18:0.012987013 19:0.038961038 20:0.012987013 21:0.0064935065 22:0.012987013 23:0.032467533 24:0 25:0.012987013 26:0.0064935065 27:0.019480519 28:0.0064935065 29:0.051948052 30:0.0064935065 31:0.032467533 32:0.025974026 33:0.0064935065 34:0.012987013 35:0.0064935065 36:0.038961038 37:0.0064935065 38:0.0064935065 39:0.0064935065 40:0.019480519 41:0.0064935065 42:0.012987013 43:0.019480519 44:0 45:0.012987013 46:0.032467533 47:0.025974026 48:0 49:0 50:0.019480519 51:0.0064935065 52:0.025974026 53:0.045454547 54:0.0064935065 55:0.045454547 56:0.0064935065 57:0.019480519 58:0.025974026 59:0.019480519 60:0.0064935065 61:0.032467533 62:0.019480519 63:0.025974026 
1.718396867873788 0:0 1:0 2:0.009345794 3:0 4:0 5:0.018691588 6:0.018691588 7:0.009345794 8:0.009345794 9:0.018691588 10:0.009345794 11:0 12:0 13:0.009345794 14:0.028037382 15:0.018691588 16:0 17:0.046728972 18:0.009345794 19:0.046728972 20:0.046728972 21:0.009345794 22:0.056074765 23:0.009345794 24:0.009345794 25:0.028037382 26:0.028037382 27:0.018691588 28:0 29:0.018691588 30:0.009345794 31:0.018691588 32:0.009345794 33:0 34:0.018691588 35:0.009345794 36:0.046728972 37:0.07476635 38:0 39:0 40:0.018691588 41:0.028037382 42:0.009345794 43:0.018691588 44:0 45:0.009345794 46:0.037383176 47:0.009345794 48:0 49:0.009345794 50:0 51:0 52:0.009345794 53:0.018691588 54:0.009345794 55:0.028037382 56:0 57:0.046728972 58:0.028037382 59:0.009345794 60:0.009345794 61:0.028037382 62:0.009345794 63:0 
5.450980727367147 0:0 1:0.024390243 2:0.016260162 3:0.016260162 4:0.008130081 5:0.024390243 6:0 7:0.016260162 8:0.008130081 9:0.032520324 10:0.024390243 11:0.008130081 12:0 13:0 14:0.016260162 15:0.016260162 16:0.024390243 17:0.008130081 18:0.032520324 19:0.008130081 20:0.016260162 21:0.032520324 22:0.016260162 23:0.008130081 24:0.008130081 25:0 26:0.032520324 27:0 28:0.024390243 29:0.008130081 30:0.024390243 31:0.008130081 32:0.016260162 33:0.016260162 34:0.016260162 35:0.008130081 36:0.024390243 37:0 38:0.016260162 39:0.032520324 40:0.032520324 41:0.032520324 42:0.05691057 43:0.024390243 44:0 45:0.016260162 46:0.008130081 47:0.032520324 48:0.016260162 49:0 50:0.008130081 51:0 52:0.024390243 53:0.016260162 54:0.008130081 55:0.008130081 56:0.008130081 57:0.008130081 58:0.024390243 59:0.024390243 60:0 61:0.032520324 62:0.016260162 63:0.008130081 
3.108884012879315 0:0.016260162 1:0.008130081 2:0.024390243 3:0.008130081 4:0 5:0.016260162 6:0 7:0.016260162 8:0.024390243 9:0.016260162 10:0.032520324 11:0.008130081 12:0 13:0.032520324 14:0.016260162 15:0.008130081 16:0.008130081 17:0.008130081 18:0.016260162 19:0.016260162 20:0.008130081 21:0.016260162 22:0 23:0.016260162 24:0.016260162 25:0 26:0.008130081 27:0 28:0 29:0.040650405 30:0.032520324 31:0.024390243 32:0.024390243 33:0.016260162 34:0.032520324 35:0.032520324 36:0.008130081 37:0 38:0 39:0.032520324 40:0.024390243 41:0.016260162 42:0.016260162 43:0.016260162 44:0.016260162 45:0.008130081 46:0.008130081 47:0.016260162 48:0.008130081 49:0 50:0.008130081 51:0 52:0.032520324 53:0.016260162 54:0.024390243 55:0.032520324 56:0.032520324 57:0.008130081 58:0.016260162 59:0.024390243 60:0 61:0.024390243 62:0.024390243 63:0.040650405 
8 0:0 1:0.01904762 2:0 3:0.00952381 4:0.028571429 5:0.01904762 6:0.01904762 7:0.00952381 8:0.01904762 9:0 10:0.01904762 11:0.00952381 12:0 13:0.028571429 14:0.00952381 15:0.00952381 16:0.01904762 17:0.01904762 18:0.01904762 19:0.01904762 20:0.01904762 21:0.01904762 22:0 23:0.01904762 24:0.00952381 25:0 26:0.028571429 27:0.03809524 28:0 29:0.028571429 30:0.01904762 31:0.01904762 32:0.00952381 33:0.01904762 34:0.028571429 35:0.01904762 36:0 37:0.00952381 38:0 39:0.00952381 40:0.028571429 41:0.01904762 42:0.00952381 43:0.028571429 44:0.01904762 45:0.03809524 46:0.028571429 47:0.00952381 48:0 49:0.01904762 50:0 51:0 52:0.028571429 53:0.00952381 54:0.04761905 55:0.028571429 56:0.01904762 57:0 58:0.03809524 59:0.01904762 60:0 61:0.01904762 62:0.01904762 63:0 
6.342029413166688 0:0.031914894 1:0 2:0.010638298 3:0.031914894 4:0.010638298 5:0 6:0 7:0 8:0.010638298 9:0.031914894 10:0.010638298 11:0.021276595 12:0.021276595 13:0.04255319 14:0.010638298 15:0.031914894 16:0.021276595 17:0 18:0.031914894 19:0 20:0.010638298 21:0 22:0.021276595 23:0.010638298 24:0.021276595 25:0.021276595 26:0 27:0 28:0 29:0.021276595 30:0.010638298 31:0.010638298 32:0.010638298 33:0 34:0.031914894 35:0.04255319 36:0.010638298 37:0.021276595 38:0.021276595 39:0 40:0.010638298 41:0 42:0 43:0.04255319 44:0.021276595 45:0 46:0.021276595 47:0.021276595 48:0.010638298 49:0.010638298 50:0 51:0.031914894 52:0.021276595 53:0.021276595 54:0 55:0.04255319 56:0.04255319 57:0 58:0.031914894 59:0 60:0.010638298 61:0.021276595 62:0.031914894 63:0.021276595 
0.2040935378836845 0:0.0088495575 1:0 2:0.026548672 3:0 4:0.0088495575 5:0 6:0.0088495575 7:0 8:0 9:0.026548672 10:0.017699115 11:0 12:0 13:0.053097345 14:0.017699115 15:0.0088495575 16:0.017699115 17:0 18:0.0088495575 19:0.044247787 20:0.017699115 21:0 22:0 23:0.026548672 24:0.0088495575 25:0.03539823 26:0.017699115 27:0.017699115 28:0.0088495575 29:0.03539823 30:0 31:0.044247787 32:0.0088495575 33:0.0088495575 34:0.0088495575 35:0.03539823 36:0.026548672 37:0 38:0.017699115 39:0.044247787 40:0.03539823 41:0.017699115 42:0.026548672 43:0.0088495575 44:0 45:0.026548672 46:0 47:0 48:0 49:0.0088495575 50:0 51:0 52:0.017699115 53:0.044247787 54:0.053097345 55:0.026548672 56:0.017699115 57:0.0088495575 58:0.026548672 59:0 60:0 61:0.026548672 62:0.026548672 63:0.017699115 
8 0:0.009259259 1:0 2:0 3:0.027777778 4:0.009259259 5:0.009259259 6:0 7:0.018518519 8:0.037037037 9:0.009259259 10:0.018518519 11:0.009259259 12:0.018518519 13:0.037037037 14:0.009259259 15:0.009259259 16:0.009259259 17:0.009259259 18:0.018518519 19:0.027777778 20:0.018518519 21:0 22:0 23:0.027777778 24:0.009259259 25:0 26:0 27:0 28:0 29:0.027777778 30:0.046296295 31:0.027777778 32:0.018518519 33:0.009259259 34:0.046296295 35:0.009259259 36:0.018518519 37:0.009259259 38:0 39:0.009259259 40:0.018518519 41:0.018518519 42:0.009259259 43:0.009259259 44:0.009259259 45:0.018518519 46:0.018518519 47:0.018518519 48:0 49:0.018518519 50:0.009259259 51:0.009259259 52:0.018518519 53:0.027777778 54:0.009259259 55:0.046296295 56:0.018518519 57:0.009259259 58:0.037037037 59:0.046296295 60:0 61:0.018518519 62:0.037037037 63:0.009259259 
1.274168239998248 0:0 1:0.020618556 2:0.020618556 3:0.010309278 4:0.010309278 5:0.010309278 6:0.010309278 7:0.020618556 8:0.010309278 9:0.030927835 10:0 11:0.020618556 12:0.020618556 13:0.010309278 14:0.020618556 15:0.010309278 16:0.030927835 17:0.020618556 18:0 19:0 20:0.010309278 21:0 22:0 23:0.010309278 24:0 25:0 26:0.010309278 27:0.010309278 28:0.010309278 29:0.010309278 30:0 31:0.05154639 32:0.030927835 33:0 34:0.030927835 35:0.020618556 36:0.010309278 37:0 38:0 39:0.020618556 40:0.041237112 41:0 42:0.041237112 43:0 44:0.010309278 45:0 46:0.020618556 47:0.030927835 48:0 49:0.010309278 50:0.010309278 51:0.030927835 52:0.020618556 53:0.010309278 54:0.010309278 55:0.020618556 56:0.030927835 57:0 58:0.030927835 59:0.020618556 60:0.010309278 61:0.041237112 62:0.041237112 63:0.06185567 
2.887074849589745 0:0 1:0.02173913 2:0.032608695 3:0.010869565 4:0.032608695 5:0 6:0 7:0.032608695 8:0.032608695 9:0.032608695 10:0 11:0.010869565 12:0 13:0.010869565 14:0 15:0.032608695 16:0.010869565 17:0.04347826 18:0.010869565 19:0.010869565 20:0.010869565 21:0 22:0 23:0.010869565 24:0.010869565 25:0 26:0 27:0.010869565 28:0 29:0.032608695 30:0 31:0.054347824 32:0.04347826 33:0 34:0.02173913 35:0.010869565 36:0.010869565 37:0 38:0.010869565 39:0.02173913 40:0.010869565 41:0 42:0.032608695 43:0 44:0 45:0 46:0.02173913 47:0.02173913 48:0.010869565 49:0 50:0.010869565 51:0.010869565 52:0.02173913 53:0.02173913 54:0.010869565 55:0.02173913 56:0.02173913 57:0 58:0.010869565 59:0.02173913 60:0.032608695 61:0.04347826 62:0.032608695 63:0.06521739 
0.2194250693216935 0:0 1:0.0125 2:0.0125 3:0.025 4:0.0125 5:0 6:0 7:0.05 8:0 9:0 10:0.0125 11:0 12:0 13:0.025 14:0.0375 15:0.025 16:0.025 17:0.025 18:0 19:0.0125 20:0 21:0.0125 22:0 23:0.025 24:0.0125 25:0.0125 26:0.0125 27:0 28:0.0375 29:0.025 30:0 31:0.025 32:0.025 33:0 34:0 35:0.0125 36:0 37:0.0125 38:0.0125 39:0 40:0.0125 41:0.0125 42:0.05 43:0.025 44:0.0125 45:0 46:0.0125 47:0.025 48:0 49:0.025 50:0 51:0.0375 52:0.05 53:0.0125 54:0.025 55:0.0125 56:0.0125 57:0 58:0.025 59:0.0375 60:0.0125 61:0.05 62:0.025 63:0.025 
8 0:0.023809524 1:0.011904762 2:0.023809524 3:0.04761905 4:0.023809524 5:0 6:0 7:0.011904762 8:0.011904762 9:0.023809524 10:0.011904762 11:0.023809524 12:0.011904762 13:0.011904762 14:0.011904762 15:0.035714287 16:0.035714287 17:0.011904762 18:0.023809524 19:0.011904762 20:0.011904762 21:0.011904762 22:0 23:0.011904762 24:0 25:0.011904762 26:0 27:0.011904762 28:0 29:0.011904762 30:0.011904762 31:0.011904762 32:0.04761905 33:0 34:0.023809524 35:0 36:0.011904762 37:0.011904762 38:0.011904762 39:0 40:0.023809524 41:0 42:0.035714287 43:0 44:0 45:0.011904762 46:0.023809524 47:0.035714287 48:0 49:0 50:0 51:0.011904762 52:0.035714287 53:0.011904762 54:0.011904762 55:0.011904762 56:0.035714287 57:0.011904762 58:0.011904762 59:0.035714287 60:0 61:0.035714287 62:0.04761905 63:0.035714287 
2.318023353947074 0:0.01754386 1:0.00877193 2:0.00877193 3:0.01754386 4:0.01754386 5:0 6:0.00877193 7:0.00877193 8:0.03508772 9:0.02631579 10:0 11:0.01754386 12:0.00877193 13:0.01754386 14:0.00877193 15:0.02631579 16:0.00877193 17:0.01754386 18:0.02631579 19:0.01754386 20:0.00877193 21:0.00877193 22:0 23:0.00877193 24:0.00877193 25:0 26:0 27:0 28:0.00877193 29:0 30:0.01754386 31:0.05263158 32:0.01754386 33:0 34:0.04385965 35:0.01754386 36:0.03508772 37:0 38:0 39:0.02631579 40:0.01754386 41:0 42:0.00877193 43:0.00877193 44:0 45:0.00877193 46:0.05263158 47:0.00877193 48:0.00877193 49:0.00877193 50:0.00877193 51:0.00877193 52:0.00877193 53:0.01754386 54:0 55:0.02631579 56:0.01754386 57:0.03508772 58:0.02631579 59:0.04385965 60:0.01754386 61:0.02631579 62:0.04385965 63:0.04385965 
6.192876127251795 0:0.01438849 1:0.007194245 2:0.043165468 3:0.007194245 4:0.007194245 5:0 6:0 7:0.02877698 8:0.05035971 9:0.021582734 10:0.021582734 11:0.01438849 12:0.01438849 13:0.01438849 14:0.021582734 15:0.007194245 16:0.01438849 17:0.021582734 18:0.01438849 19:0.02877698 20:0.01438849 21:0 22:0 23:0.01438849 24:0 25:0 26:0 27:0 28:0 29:0.021582734 30:0.01438849 31:0.05035971 32:0.043165468 33:0 34:0.043165468 35:0.007194245 36:0.021582734 37:0.021582734 38:0 39:0.021582734 40:0.035971224 41:0.007194245 42:0.021582734 43:0.007194245 44:0 45:0.007194245 46:0.02877698 47:0 48:0 49:0.007194245 50:0.007194245 51:0.01438849 52:0.043165468 53:0.007194245 54:0 55:0.021582734 56:0.007194245 57:0.035971224 58:0.02877698 59:0.01438849 60:0.01438849 61:0.02877698 62:0.01438849 63:0.021582734 
0.7452747289633802 0:0.008928572 1:0.026785715 2:0 3:0.017857144 4:0.008928572 5:0.008928572 6:0.008928572 7:0.008928572 8:0 9:0.017857144 10:0 11:0.008928572 12:0 13:0.0625 14:0.04464286 15:0.017857144 16:0.026785715 17:0.008928572 18:0.017857144 19:0.0625 20:0.008928572 21:0 22:0.017857144 23:0 24:0 25:0.017857144 26:0.026785715 27:0.017857144 28:0 29:0.008928572 30:0.008928572 31:0.008928572 32:0.008928572 33:0 34:0.008928572 35:0.035714287 36:0.026785715 37:0.008928572 38:0.035714287 39:0.008928572 40:0 41:0.017857144 42:0 43:0.026785715 44:0.008928572 45:0.008928572 46:0.017857144 47:0.026785715 48:0.008928572 49:0 50:0 51:0 52:0.071428575 53:0.008928572 54:0 55:0.008928572 56:0.05357143 57:0.035714287 58:0.017857144 59:0.008928572 60:0 61:0.008928572 62:0.04464286 63:0.017857144 
4.248295759520903 0:0.03448276 1:0.01724138 2:0.03448276 3:0.02586207 4:0 5:0.02586207 6:0.00862069 7:0.01724138 8:0.00862069 9:0.02586207 10:0.02586207 11:0.01724138 12:0 13:0.00862069 14:0.00862069 15:0.03448276 16:0.02586207 17:0.03448276 18:0.01724138 19:0.00862069 20:0.01724138 21:0.00862069 22:0.01724138 23:0.01724138 24:0 25:0.00862069 26:0.01724138 27:0.00862069 28:0.00862069 29:0.00862069 30:0.03448276 31:0.00862069 32:0.03448276 33:0 34:0.00862069 35:0.00862069 36:0.04310345 37:0.02586207 38:0.00862069 39:0.02586207 40:0.00862069 41:0.03448276 42:0.00862069 43:0.00862069 44:0 45:0.00862069 46:0.00862069 47:0.01724138 48:0.01724138 49:0 50:0.00862069 51:0.00862069 52:0.02586207 53:0 54:0 55:0.00862069 56:0.03448276 57:0.03448276 58:0.00862069 59:0 60:0.02586207 61:0.00862069 62:0.02586207 63:0.00862069 
8 0:0 1:0.026548672 2:0 3:0.03539823 4:0.026548672 5:0.017699115 6:0 7:0.026548672 8:0.017699115 9:0.0088495575 10:0.026548672 11:0.017699115 12:0.017699115 13:0 14:0.026548672 15:0.0088495575 16:0.017699115 17:0.017699115 18:0.026548672 19:0 20:0.017699115 21:0.026548672 22:0 23:0.0088495575 24:0 25:0 26:0 27:0 28:0.0088495575 29:0.0088495575 30:0.044247787 31:0.017699115 32:0.017699115 33:0 34:0.044247787 35:0 36:0 37:0.0088495575 38:0 39:0.017699115 40:0.017699115 41:0 42:0.0088495575 43:0.044247787 44:0.044247787 45:0.0088495575 46:0.03539823 47:0.017699115 48:0.026548672 49:0.026548672 50:0 51:0.017699115 52:0.017699115 53:0 54:0 55:0.026548672 56:0.026548672 57:0.0088495575 58:0.03539823 59:0.044247787 60:0 61:0.026548672 62:0.0088495575 63:0.017699115 
8 0:0 1:0.011627907 2:0 3:0 4:0.034883723 5:0 6:0.011627907 7:0.011627907 8:0 9:0.011627907 10:0.034883723 11:0.011627907 12:0 13:0 14:0.011627907 15:0 16:0 17:0.023255814 18:0.023255814 19:0 20:0 21:0.023255814 22:0.011627907 23:0.023255814 24:0.011627907 25:0.011627907 26:0.034883723 27:0.011627907 28:0.011627907 29:0.023255814 30:0.034883723 31:0.011627907 32:0.011627907 33:0.011627907 34:0.034883723 35:0.011627907 36:0 37:0.023255814 38:0.023255814 39:0.011627907 40:0.034883723 41:0.023255814 42:0.046511628 43:0.046511628 44:0 45:0.034883723 46:0.034883723 47:0.023255814 48:0 49:0.011627907 50:0 51:0 52:0.011627907 53:0.011627907 54:0.023255814 55:0.046511628 56:0.023255814 57:0.011627907 58:0.023255814 59:0.023255814 60:0 61:0.034883723 62:0 63:0.011627907 
8 0:0.00862069 1:0.00862069 2:0.01724138 3:0.02586207 4:0.00862069 5:0.03448276 6:0 7:0.00862069 8:0.00862069 9:0.00862069 10:0.00862069 11:0.04310345 12:0 13:0.02586207 14:0.01724138 15:0.01724138 16:0.04310345 17:0.01724138 18:0.03448276 19:0.01724138 20:0.02586207 21:0.00862069 22:0.02586207 23:0.00862069 24:0.00862069 25:0.00862069 26:0.03448276 27:0 28:0 29:0 30:0.01724138 31:0.01724138 32:0.00862069 33:0 34:0.01724138 35:0.01724138 36:0.05172414 37:0.01724138 38:0 39:0.00862069 40:0.00862069 41:0.01724138 42:0.00862069 43:0.02586207 44:0.00862069 45:0.02586207 46:0.02586207 47:0.01724138 48:0 49:0.01724138 50:0 51:0 52:0.02586207 53:0.00862069 54:0.02586207 55:0.01724138 56:0.01724138 57:0.04310345 58:0.00862069 59:0.00862069 60:0.00862069 61:0.02586207 62:0.01724138 63:0.00862069 
3.913558040401584 0:0.008695652 1:0.008695652 2:0.008695652 3:0.008695652 4:0.017391304 5:0.017391304 6:0 7:0.017391304 8:0.026086956 9:0.017391304 10:0.017391304 11:0 12:0 13:0.017391304 14:0.008695652 15:0.026086956 16:0.026086956 17:0.034782607 18:0.026086956 19:0.017391304 20:0.034782607 21:0.008695652 22:0.008695652 23:0.017391304 24:0 25:0 26:0.008695652 27:0 28:0.008695652 29:0.04347826 30:0.008695652 31:0.04347826 32:0 33:0 34:0.017391304 35:0.034782607 36:0.026086956 37:0.026086956 38:0 39:0.017391304 40:0.017391304 41:0.017391304 42:0.017391304 43:0.017391304 44:0 45:0.008695652 46:0.017391304 47:0.008695652 48:0 49:0.008695652 50:0.008695652 51:0 52:0.026086956 53:0.017391304 54:0 55:0.052173913 56:0.008695652 57:0.034782607 58:0.026086956 59:0.017391304 60:0.008695652 61:0.026086956 62:0.04347826 63:0.008695652 
2.066506538690739 0:0.008547009 1:0.008547009 2:0.008547009 3:0 4:0 5:0 6:0 7:0.025641026 8:0.017094018 9:0.008547009 10:0.025641026 11:0 12:0.017094018 13:0.025641026 14:0.042735044 15:0.051282052 16:0.017094018 17:0.008547009 18:0.025641026 19:0.034188036 20:0.042735044 21:0.025641026 22:0 23:0.008547009 24:0.008547009 25:0 26:0 27:0 28:0.017094018 29:0.017094018 30:0.017094018 31:0.008547009 32:0 33:0 34:0.017094018 35:0.06837607 36:0.034188036 37:0.017094018 38:0.008547009 39:0.017094018 40:0.042735044 41:0.025641026 42:0.017094018 43:0 44:0 45:0 46:0.008547009 47:0 48:0 49:0.008547009 50:0 51:0.025641026 52:0.008547009 53:0.034188036 54:0 55:0.008547009 56:0.017094018 57:0.042735044 58:0.042735044 59:0.008547009 60:0 61:0.017094018 62:0.042735044 63:0.017094018 
8 0:0.041237112 1:0.010309278 2:0.020618556 3:0.010309278 4:0 5:0.010309278 6:0.010309278 7:0.030927835 8:0.020618556 9:0.030927835 10:0.020618556 11:0.010309278 12:0 13:0.020618556 14:0.020618556 15:0.010309278 16:0.041237112 17:0.020618556 18:0.041237112 19:0.020618556 20:0.05154639 21:0.020618556 22:0.010309278 23:0.010309278 24:0.020618556 25:0.010309278 26:0 27:0 28:0 29:0.010309278 30:0.030927835 31:0.020618556 32:0 33:0.010309278 34:0.020618556 35:0.030927835 36:0.06185567 37:0.041237112 38:0 39:0.010309278 40:0.010309278 41:0.030927835 42:0.010309278 43:0.010309278 44:0 45:0.010309278 46:0.010309278 47:0 48:0 49:0.010309278 50:0 51:0 52:0.010309278 53:0.010309278 54:0.010309278 55:0.010309278 56:0.010309278 57:0.041237112 58:0.030927835 59:0 60:0.010309278 61:0 62:0.020618556 63:0 
5.289378950065882 0:0.01754386 1:0.00877193 2:0.01754386 3:0.02631579 4:0.00877193 5:0 6:0 7:0.00877193 8:0.02631579 9:0.03508772 10:0.02631579 11:0.02631579 12:0.01754386 13:0.00877193 14:0.02631579 15:0.00877193 16:0.01754386 17:0.00877193 18:0.02631579 19:0.01754386 20:0.01754386 21:0.01754386 22:0 23:0.03508772 24:0 25:0 26:0 27:0 28:0.01754386 29:0.01754386 30:0.05263158 31:0.00877193 32:0.01754386 33:0 34:0.05263158 35:0.01754386 36:0.02631579 37:0.03508772 38:0 39:0.03508772 40:0.03508772 41:0.01754386 42:0.00877193 43:0 44:0 45:0 46:0.02631579 47:0.00877193 48:0.01754386 49:0 50:0.01754386 51:0 52:0.01754386 53:0.01754386 54:0 55:0.01754386 56:0.02631579 57:0.04385965 58:0.02631579 59:0 60:0 61:0.02631579 62:0 63:0.00877193 
8 0:0.028846154 1:0.009615385 2:0.01923077 3:0 4:0 5:0 6:0 7:0.028846154 8:0.009615385 9:0.028846154 10:0.028846154 11:0.03846154 12:0 13:0 14:0.009615385 15:0.009615385 16:0.009615385 17:0.009615385 18:0.03846154 19:0.01923077 20:0.01923077 21:0.01923077 22:0 23:0.028846154 24:0 25:0 26:0 27:0 28:0.009615385 29:0.067307696 30:0.01923077 31:0.01923077 32:0.009615385 33:0.009615385 34:0.028846154 35:0 36:0.01923077 37:0.028846154 38:0 39:0.01923077 40:0.028846154 41:0.01923077 42:0.01923077 43:0 44:0.009615385 45:0.01923077 46:0.009615385 47:0.01923077 48:0.009615385 49:0 50:0.009615385 51:0 52:0.03846154 53:0.01923077 54:0 55:0.048076924 56:0.009615385 57:0.01923077 58:0.01923077 59:0.01923077 60:0 61:0.01923077 62:0.028846154 63:0.048076924 
3.096882620317634 0:0.01923077 1:0 2:0.01923077 3:0.01923077 4:0 5:0.009615385 6:0 7:0.01923077 8:0.01923077 9:0.009615385 10:0.009615385 11:0.01923077 12:0 13:0.028846154 14:0.01923077 15:0.028846154 16:0.01923077 17:0 18:0.028846154 19:0.03846154 20:0.01923077 21:0.01923077 22:0.009615385 23:0.01923077 24:0.009615385 25:0 26:0.009615385 27:0 28:0.009615385 29:0 30:0.03846154 31:0.009615385 32:0.01923077 33:0.009615385 34:0 35:0.01923077 36:0.03846154 37:0.028846154 38:0 39:0.01923077 40:0.01923077 41:0.01923077 42:0.03846154 43:0.009615385 44:0 45:0.009615385 46:0 47:0.03846154 48:0 49:0.01923077 50:0 51:0 52:0.028846154 53:0.009615385 54:0.009615385 55:0.009615385 56:0 57:0.057692308 58:0.028846154 59:0.01923077 60:0.009615385 61:0.01923077 62:0.048076924 63:0.01923077 
0.003689102726865641 0:0.016129032 1:0.005376344 2:0.032258064 3:0.010752688 4:0.005376344 5:0.010752688 6:0 7:0.016129032 8:0.010752688 9:0.021505376 10:0.032258064 11:0.005376344 12:0.016129032 13:0.02688172 14:0.021505376 15:0.010752688 16:0.016129032 17:0.010752688 18:0.005376344 19:0.021505376 20:0.021505376 21:0.005376344 22:0.005376344 23:0.010752688 24:0.005376344 25:0 26:0 27:0.005376344 28:0.010752688 29:0.02688172 30:0.021505376 31:0.032258064 32:0.032258064 33:0.010752688 34:0.021505376 35:0.021505376 36:0.010752688 37:0.005376344 38:0 39:0.032258064 40:0.02688172 41:0.005376344 42:0.010752688 43:0.02688172 44:0 45:0 46:0.016129032 47:0.032258064 48:0 49:0.005376344 50:0.010752688 51:0.021505376 52:0.016129032 53:0.021505376 54:0.005376344 55:0.032258064 56:0.043010753 57:0.021505376 58:0.021505376 59:0.010752688 60:0.010752688 61:0.02688172 62:0.03763441 63:0.021505376 
6.668641558204691 0:0.005291005 1:0.005291005 2:0.026455026 3:0.01058201 4:0.005291005 5:0.015873017 6:0 7:0.005291005 8:0.026455026 9:0.02116402 10:0.026455026 11:0.015873017 12:0.01058201 13:0.005291005 14:0.031746034 15:0.026455026 16:0.01058201 17:0 18:0.015873017 19:0.026455026 20:0.01058201 21:0.015873017 22:0.01058201 23:0.031746034 24:0.005291005 25:0.005291005 26:0.01058201 27:0 28:0.02116402 29:0.031746034 30:0.01058201 31:0.015873017 32:0.031746034 33:0.005291005 34:0.031746034 35:0.037037037 36:0.02116402 37:0.01058201 38:0 39:0.02116402 40:0.04232804 41:0.005291005 42:0.02116402 43:0.015873017 44:0.005291005 45:0.01058201 46:0.01058201 47:0.01058201 48:0 49:0.015873017 50:0.015873017 51:0.005291005 52:0.015873017 53:0.026455026 54:0.01058201 55:0.02116402 56:0.026455026 57:0.02116402 58:0.026455026 59:0.005291005 60:0 61:0.026455026 62:0.026455026 63:0.015873017 
0.2825996898320467 0:0.0051282053 1:0.010256411 2:0.03076923 3:0.010256411 4:0.0051282053 5:0.0051282053 6:0.010256411 7:0.015384615 8:0.025641026 9:0.035897437 10:0.015384615 11:0.010256411 12:0.0051282053 13:0.0051282053 14:0.03076923 15:0.010256411 16:0.010256411 17:0.015384615 18:0.010256411 19:0.015384615 20:0.015384615 21:0.010256411 22:0.015384615 23:0.020512821 24:0.025641026 25:0.015384615 26:0.010256411 27:0.015384615 28:0.0051282053 29:0.035897437 30:0.010256411 31:0.025641026 32:0.035897437 33:0.010256411 34:0.025641026 35:0.025641026 36:0.010256411 37:0.015384615 38:0.025641026 39:0.03076923 40:0.020512821 41:0.0051282053 42:0.020512821 43:0.020512821 44:0.0051282053 45:0.020512821 46:0.015384615 47:0.0051282053 48:0.0051282053 49:0 50:0.020512821 51:0 52:0.020512821 53:0.03076923 54:0.015384615 55:0.010256411 56:0.025641026 57:0.025641026 58:0.020512821 59:0 60:0.010256411 61:0.015384615 62:0.015384615 63:0.0051282053 
2.642984643019312 0:0 1:0.010204081 2:0.010204081 3:0.010204081 4:0 5:0 6:0.010204081 7:0 8:0.010204081 9:0.010204081 10:0.020408163 11:0.010204081 12:0 13:0.010204081 14:0.020408163 15:0.020408163 16:0 17:0 18:0.010204081 19:0.030612245 20:0.010204081 21:0.010204081 22:0.030612245 23:0.030612245 24:0.010204081 25:0.020408163 26:0.010204081 27:0.010204081 28:0 29:0.020408163 30:0.06122449 31:0.010204081 32:0.020408163 33:0 34:0.030612245 35:0.010204081 36:0.020408163 37:0.040816326 38:0.010204081 39:0.06122449 40:0.020408163 41:0.040816326 42:0.020408163 43:0.020408163 44:0 45:0.010204081 46:0.020408163 47:0.020408163 48:0.010204081 49:0 50:0 51:0 52:0.010204081 53:0.030612245 54:0 55:0 56:0.020408163 57:0.06122449 58:0.040816326 59:0.010204081 60:0.010204081 61:0.010204081 62:0.030612245 63:0.010204081 
4.166639382859257 0:0 1:0.007575758 2:0.007575758 3:0.015151516 4:0.007575758 5:0 6:0.007575758 7:0.007575758 8:0.007575758 9:0.007575758 10:0.007575758 11:0.007575758 12:0.030303031 13:0.053030305 14:0.015151516 15:0.007575758 16:0.007575758 17:0.007575758 18:0.022727273 19:0.007575758 20:0.007575758 21:0.015151516 22:0.015151516 23:0.030303031 24:0.03787879 25:0.015151516 26:0 27:0.007575758 28:0 29:0.030303031 30:0.03787879 31:0.030303031 32:0.007575758 33:0 34:0 35:0.06818182 36:0.022727273 37:0.030303031 38:0.007575758 39:0.022727273 40:0.007575758 41:0.007575758 42:0.015151516 43:0.015151516 44:0 45:0 46:0.030303031 47:0.007575758 48:0.015151516 49:0.007575758 50:0 51:0.015151516 52:0.007575758 53:0.022727273 54:0.030303031 55:0.03787879 56:0.022727273 57:0.053030305 58:0.022727273 59:0.007575758 60:0.007575758 61:0.015151516 62:0.015151516 63:0.015151516 
2.845545420624334 0:0.010869565 1:0.010869565 2:0.010869565 3:0 4:0 5:0.010869565 6:0.02173913 7:0 8:0.010869565 9:0.032608695 10:0.010869565 11:0 12:0 13:0 14:0.02173913 15:0 16:0.010869565 17:0.010869565 18:0.032608695 19:0.02173913 20:0.010869565 21:0 22:0.032608695 23:0.010869565 24:0.010869565 25:0.010869565 26:0.04347826 27:0.02173913 28:0 29:0.032608695 30:0.032608695 31:0.032608695 32:0.010869565 33:0.010869565 34:0.010869565 35:0 36:0.054347824 37:0.02173913 38:0.02173913 39:0.07608695 40:0.010869565 41:0.08695652 42:0.032608695 43:0 44:0 45:0 46:0.032608695 47:0 48:0 49:0 50:0 51:0 52:0 53:0.02173913 54:0.010869565 55:0.010869565 56:0 57:0.04347826 58:0.04347826 59:0.010869565 60:0 61:0.02173913 62:0.010869565 63:0 
8 0:0 1:0.0076923077 2:0.0076923077 3:0 4:0 5:0.0076923077 6:0.015384615 7:0.0076923077 8:0.0076923077 9:0.03076923 10:0.015384615 11:0.015384615 12:0 13:0.015384615 14:0.023076924 15:0 16:0 17:0.023076924 18:0.023076924 19:0.023076924 20:0.03076923 21:0 22:0.015384615 23:0 24:0.015384615 25:0.03076923 26:0.015384615 27:0.03846154 28:0 29:0.0076923077 30:0.023076924 31:0.015384615 32:0.015384615 33:0 34:0.03076923 35:0.015384615 36:0.03076923 37:0.0076923077 38:0.053846154 39:0.015384615 40:0.023076924 41:0.03076923 42:0.015384615 43:0.015384615 44:0.0076923077 45:0.03076923 46:0.046153847 47:0.015384615 48:0 49:0 50:0.0076923077 51:0 52:0.0076923077 53:0.03076923 54:0.015384615 55:0.023076924 56:0.015384615 57:0.015384615 58:0.03846154 59:0.03076923 60:0 61:0.023076924 62:0.015384615 63:0.0076923077 
4.492598709418192 0:0 1:0.007246377 2:0.007246377 3:0.007246377 4:0.02173913 5:0.007246377 6:0 7:0 8:0.02173913 9:0 10:0.036231883 11:0.007246377 12:0.057971016 13:0.04347826 14:0.028985508 15:0.007246377 16:0.014492754 17:0.014492754 18:0.028985508 19:0.014492754 20:0.007246377 21:0 22:0 23:0.014492754 24:0 25:0 26:0.007246377 27:0 28:0.007246377 29:0.014492754 30:0.007246377 31:0.014492754 32:0.007246377 33:0.007246377 34:0 35:0.050724637 36:0.014492754 37:0.007246377 38:0 39:0.007246377 40:0.02173913 41:0.007246377 42:0.036231883 43:0.036231883 44:0.02173913 45:0 46:0.050724637 47:0.014492754 48:0 49:0 50:0.02173913 51:0.06521739 52:0.028985508 53:0.014492754 54:0.007246377 55:0.02173913 56:0.02173913 57:0.02173913 58:0.02173913 59:0.04347826 60:0 61:0.014492754 62:0.02173913 63:0.014492754 
1.274725534889506 0:0 1:0.008 2:0.008 3:0.016 4:0 5:0.016 6:0 7:0.016 8:0 9:0.016 10:0.04 11:0 12:0 13:0.016 14:0.008 15:0.016 16:0.008 17:0 18:0.008 19:0.016 20:0.016 21:0.008 22:0.024 23:0.04 24:0.016 25:0.008 26:0.04 27:0 28:0.016 29:0.04 30:0.016 31:0.024 32:0 33:0.016 34:0.032 35:0 36:0.008 37:0.016 38:0.016 39:0.024 40:0.032 41:0.04 42:0.024 43:0.024 44:0 45:0.008 46:0 47:0.032 48:0.024 49:0.008 50:0.008 51:0 52:0.008 53:0.048 54:0.024 55:0.016 56:0 57:0.008 58:0.016 59:0.016 60:0.024 61:0.032 62:0.016 63:0.04 
6.376525320670471 0:0.017391304 1:0.008695652 2:0.017391304 3:0.017391304 4:0.017391304 5:0.017391304 6:0 7:0 8:0 9:0.008695652 10:0.052173913 11:0 12:0 13:0.017391304 14:0.026086956 15:0.026086956 16:0.026086956 17:0.017391304 18:0.026086956 19:0.026086956 20:0.026086956 21:0.008695652 22:0 23:0.008695652 24:0 25:0 26:0.008695652 27:0 28:0 29:0.017391304 30:0.008695652 31:0.026086956 32:0 33:0.008695652 34:0.008695652 35:0.026086956 36:0.026086956 37:0 38:0 39:0.017391304 40:0.034782607 41:0.017391304 42:0.017391304 43:0.034782607 44:0 45:0.017391304 46:0.017391304 47:0.04347826 48:0.017391304 49:0 50:0.008695652 51:0 52:0.034782607 53:0.017391304 54:0.008695652 55:0.026086956 56:0.008695652 57:0.017391304 58:0.026086956 59:0.034782607 60:0.026086956 61:0.034782607 62:0.034782607 63:0.008695652 
7.282133762587006 0:0.027777778 1:0.009259259 2:0.018518519 3:0.009259259 4:0.009259259 5:0 6:0 7:0.009259259 8:0.027777778 9:0.027777778 10:0.027777778 11:0.018518519 12:0 13:0.037037037 14:0.027777778 15:0.027777778 16:0.018518519 17:0 18:0.037037037 19:0.037037037 20:0.018518519 21:0 22:0 23:0 24:0 25:0 26:0 27:0 28:0 29:0 30:0.055555556 31:0.018518519 32:0.018518519 33:0.009259259 34:0.027777778 35:0.037037037 36:0.027777778 37:0.018518519 38:0 39:0.046296295 40:0.009259259 41:0.009259259 42:0.009259259 43:0.009259259 44:0 45:0 46:0.037037037 47:0.009259259 48:0 49:0 50:0.018518519 51:0.009259259 52:0.027777778 53:0 54:0 55:0.018518519 56:0.055555556 57:0.055555556 58:0 59:0.018518519 60:0.027777778 61:0.009259259 62:0.018518519 63:0.009259259 
5.921730471543368 0:0.025 1:0.0125 2:0.0375 3:0 4:0 5:0.0125 6:0 7:0 8:0.0125 9:0.075 10:0.0125 11:0 12:0.0125 13:0.075 14:0.025 15:0 16:0.0125 17:0 18:0.0625 19:0.075 20:0.025 21:0 22:0.0125 23:0 24:0.0125 25:0 26:0.0125 27:0 28:0 29:0.025 30:0.025 31:0.025 32:0.025 33:0 34:0 35:0.0375 36:0.05 37:0.0125 38:0.0125 39:0.025 40:0 41:0.0125 42:0 43:0.0125 44:0 45:0 46:0.0125 47:0 48:0.0125 49:0 50:0 51:0 52:0.0625 53:0.0125 54:0 55:0.05 56:0.0375 57:0.0125 58:0 59:0 60:0 61:0.025 62:0 63:0 
0.3211504548979421 0:0 1:0 2:0.016949153 3:0.016949153 4:0.008474576 5:0.008474576 6:0.008474576 7:0 8:0 9:0.016949153 10:0.008474576 11:0.016949153 12:0 13:0.059322033 14:0.050847456 15:0.016949153 16:0.016949153 17:0.016949153 18:0.016949153 19:0.033898305 20:0.016949153 21:0 22:0 23:0.008474576 24:0.008474576 25:0 26:0.008474576 27:0 28:0 29:0.025423728 30:0.050847456 31:0.008474576 32:0.008474576 33:0 34:0 35:0.076271184 36:0.008474576 37:0.008474576 38:0 39:0.025423728 40:0.008474576 41:0 42:0 43:0.025423728 44:0.008474576 45:0.008474576 46:0.016949153 47:0.033898305 48:0.008474576 49:0.008474576 50:0.008474576 51:0 52:0.042372882 53:0.008474576 54:0.008474576 55:0.050847456 56:0.06779661 57:0.025423728 58:0.016949153 59:0.025423728 60:0.016949153 61:0.016949153 62:0.016949153 63:0.008474576 
3.588808561966564 0:0 1:0 2:0.011764706 3:0.011764706 4:0 5:0.023529412 6:0 7:0 8:0.011764706 9:0.011764706 10:0 11:0.011764706 12:0 13:0.03529412 14:0 15:0 16:0.011764706 17:0.011764706 18:0.011764706 19:0 20:0.011764706 21:0.023529412 22:0.09411765 23:0.023529412 24:0 25:0.08235294 26:0.05882353 27:0 28:0 29:0.023529412 30:0.011764706 31:0.023529412 32:0.011764706 33:0.011764706 34:0.011764706 35:0.023529412 36:0.023529412 37:0.09411765 38:0 39:0.03529412 40:0.03529412 41:0.023529412 42:0.047058824 43:0.011764706 44:0 45:0 46:0.023529412 47:0 48:0 49:0 50:0 51:0 52:0 53:0.011764706 54:0.047058824 55:0 56:0.011764706 57:0.03529412 58:0.011764706 59:0 60:0 61:0 62:0.023529412 63:0 
8 0:0 1:0.01923077 2:0 3:0 4:0 5:0.009615385 6:0 7:0.048076924 8:0 9:0.009615385 10:0.01923077 11:0 12:0 13:0 14:0.01923077 15:0.009615385 16:0 17:0.028846154 18:0.01923077 19:0.01923077 20:0.03846154 21:0 22:0.009615385 23:0.028846154 24:0 25:0 26:0.009615385 27:0.009615385 28:0 29:0.03846154 30:0.03846154 31:0.03846154 32:0.01923077 33:0.009615385 34:0.009615385 35:0.009615385 36:0.028846154 37:0.01923077 38:0 39:0.01923077 40:0.028846154 41:0.028846154 42:0.009615385 43:0.01923077 44:0 45:0.01923077 46:0.03846154 47:0.028846154 48:0 49:0 50:0 51:0 52:0 53:0.048076924 54:0.009615385 55:0.01923077 56:0.01923077 57:0.028846154 58:0.048076924 59:0.057692308 60:0 61:0.01923077 62:0.048076924 63:0 
6.191732783274303 0:0 1:0.009090909 2:0.027272727 3:0.009090909 4:0.009090909 5:0.009090909 6:0.009090909 7:0.009090909 8:0 9:0.045454547 10:0.009090909 11:0.018181818 12:0 13:0.009090909 14:0.018181818 15:0.009090909 16:0.018181818 17:0.009090909 18:0.018181818 19:0 20:0.009090909 21:0 22:0.018181818 23:0.036363635 24:0 25:0.009090909 26:0.027272727 27:0 28:0.018181818 29:0.027272727 30:0.027272727 31:0.036363635 32:0.027272727 33:0.009090909 34:0.009090909 35:0.018181818 36:0.018181818 37:0.036363635 38:0.009090909 39:0.045454547 40:0.036363635 41:0.027272727 42:0.036363635 43:0.009090909 44:0.009090909 45:0.018181818 46:0 47:0.009090909 48:0 49:0.009090909 50:0.018181818 51:0.009090909 52:0.009090909 53:0.018181818 54:0 55:0.018181818 56:0.018181818 57:0.027272727 58:0.036363635 59:0.009090909 60:0.009090909 61:0 62:0.045454547 63:0.009090909 
7.676097534175167 0:0.016666668 1:0 2:0.016666668 3:0.016666668 4:0 5:0 6:0 7:0.008333334 8:0.008333334 9:0.033333335 10:0.025 11:0.016666668 12:0 13:0.016666668 14:0.025 15:0.033333335 16:0.008333334 17:0 18:0.033333335 19:0.016666668 20:0.008333334 21:0 22:0 23:0.041666668 24:0 25:0 26:0 27:0 28:0.008333334 29:0.016666668 30:0.025 31:0.033333335 32:0.008333334 33:0.008333334 34:0.008333334 35:0.033333335 36:0.016666668 37:0.025 38:0 39:0.016666668 40:0.016666668 41:0.016666668 42:0.008333334 43:0.016666668 44:0.016666668 45:0.016666668 46:0.033333335 47:0.008333334 48:0.016666668 49:0 50:0.025 51:0.016666668 52:0.033333335 53:0.025 54:0 55:0.016666668 56:0.033333335 57:0.008333334 58:0.025 59:0.041666668 60:0.033333335 61:0.025 62:0.025 63:0.016666668 
8 0:0.018867925 1:0.009433962 2:0.009433962 3:0.009433962 4:0 5:0 6:0 7:0.018867925 8:0.018867925 9:0.028301887 10:0.028301887 11:0.028301887 12:0.009433962 13:0.009433962 14:0.018867925 15:0.009433962 16:0.009433962 17:0 18:0.018867925 19:0.018867925 20:0.009433962 21:0 22:0 23:0.03773585 24:0 25:0 26:0 27:0 28:0.009433962 29:0.018867925 30:0.03773585 31:0.03773585 32:0.018867925 33:0.009433962 34:0.028301887 35:0.018867925 36:0.009433962 37:0.028301887 38:0 39:0.018867925 40:0.018867925 41:0.018867925 42:0 43:0.018867925 44:0.028301887 45:0.03773585 46:0.018867925 47:0.009433962 48:0 49:0 50:0.047169812 51:0 52:0.028301887 53:0.018867925 54:0.009433962 55:0.028301887 56:0.03773585 57:0.009433962 58:0.028301887 59:0.03773585 60:0 61:0.018867925 62:0.03773585 63:0 
8 0:0 1:0 2:0.028301887 3:0.018867925 4:0 5:0 6:0 7:0.009433962 8:0 9:0.03773585 10:0.018867925 11:0.018867925 12:0.009433962 13:0.018867925 14:0.028301887 15:0.018867925 16:0.018867925 17:0 18:0.009433962 19:0.009433962 20:0.009433962 21:0.009433962 22:0 23:0.056603774 24:0 25:0 26:0 27:0 28:0.009433962 29:0.028301887 30:0.047169812 31:0.028301887 32:0.009433962 33:0.009433962 34:0.009433962 35:0.03773585 36:0.018867925 37:0.028301887 38:0 39:0.018867925 40:0.018867925 41:0.018867925 42:0.009433962 43:0.009433962 44:0 45:0.018867925 46:0.018867925 47:0.009433962 48:0.018867925 49:0 50:0.028301887 51:0.009433962 52:0.009433962 53:0.03773585 54:0 55:0.028301887 56:0.047169812 57:0.009433962 58:0.03773585 59:0.018867925 60:0.03773585 61:0.009433962 62:0.018867925 63:0.018867925 
2.468844925622996 0:0.017142856 1:0 2:0.017142856 3:0.017142856 4:0 5:0 6:0 7:0.0057142857 8:0.034285713 9:0.017142856 10:0.0057142857 11:0.011428571 12:0 13:0.022857143 14:0.034285713 15:0.017142856 16:0.011428571 17:0 18:0.034285713 19:0.022857143 20:0.022857143 21:0.0057142857 22:0.011428571 23:0.017142856 24:0 25:0 26:0.0057142857 27:0.0057142857 28:0.017142856 29:0.011428571 30:0.0057142857 31:0.034285713 32:0.017142856 33:0.0057142857 34:0.0057142857 35:0.022857143 36:0.028571429 37:0.034285713 38:0 39:0.017142856 40:0.0057142857 41:0.034285713 42:0.011428571 43:0.017142856 44:0.0057142857 45:0.0057142857 46:0.04 47:0.022857143 48:0.0057142857 49:0 50:0.011428571 51:0.011428571 52:0.017142856 53:0.017142856 54:0 55:0.022857143 56:0.011428571 57:0.034285713 58:0.045714285 59:0.04 60:0.0057142857 61:0.017142856 62:0.05142857 63:0.028571429 
2.145937381676249 0:0.008064516 1:0.024193548 2:0.032258064 3:0.016129032 4:0.016129032 5:0.008064516 6:0 7:0.016129032 8:0.016129032 9:0.016129032 10:0.024193548 11:0.016129032 12:0 13:0.032258064 14:0 15:0.016129032 16:0.048387095 17:0 18:0.016129032 19:0.024193548 20:0.032258064 21:0 22:0.04032258 23:0.024193548 24:0 25:0.016129032 26:0.04032258 27:0.008064516 28:0 29:0.024193548 30:0.024193548 31:0.016129032 32:0.008064516 33:0.016129032 34:0.016129032 35:0.008064516 36:0.024193548 37:0.06451613 38:0 39:0.016129032 40:0.024193548 41:0.04032258 42:0 43:0.008064516 44:0.008064516 45:0.024193548 46:0.008064516 47:0 48:0.016129032 49:0 50:0.008064516 51:0 52:0.016129032 53:0.024193548 54:0.024193548 55:0.008064516 56:0 57:0.032258064 58:0.008064516 59:0.008064516 60:0.016129032 61:0 62:0.016129032 63:0 
